{
  "features_info":
    {
      "cat_features_hash":null,
      "float_features":
        [
          {
            "borders":
              [
                3.5,
                6.5,
                7.5,
                8.5,
                12,
                15.5,
                16.5,
                26,
                44
              ],
            "feature_id":"",
            "feature_index":0,
            "flat_feature_index":0,
            "has_nans":false,
            "nan_value_treatment":"AsIs"
          },
          {
            "borders":
              [
                -0.59319669008255005,
                -0.53920531272888184,
                -0.48010802268981934,
                -0.44753611087799072,
                -0.42804408073425293,
                -0.40267044305801392,
                -0.38727694749832153,
                -0.37340158224105835,
                -0.3568594753742218,
                -0.34222573041915894,
                -0.33444422483444214,
                -0.32524368166923523,
                -0.31597834825515747,
                -0.30761012434959412,
                -0.29853683710098267,
                -0.28131812810897827,
                -0.26645147800445557,
                -0.25461113452911377,
                -0.24454763531684875,
                -0.23801420629024506,
                -0.23426127433776855,
                -0.2326393723487854,
                -0.231239914894104,
                -0.22972401976585388,
                -0.22841182351112366,
                -0.22716900706291199,
                -0.22503994405269623,
                -0.2228015661239624,
                -0.21877917647361755,
                -0.21292608976364136,
                -0.20551900565624237,
                -0.19953286647796631,
                -0.19189417362213135,
                -0.18371525406837463,
                -0.17709240317344666,
                -0.17224466800689697,
                -0.16777801513671875,
                -0.16514101624488831,
                -0.16305263340473175,
                -0.16163308918476105,
                -0.16051343083381653,
                -0.15916931629180908,
                -0.15815883874893188,
                -0.15734487771987915,
                -0.15626883506774902,
                -0.15360730886459351,
                -0.15200784802436829,
                -0.15001897513866425,
                -0.14807650446891785,
                -0.14604973793029785,
                -0.14349988102912903,
                -0.14129279553890228,
                -0.13883012533187866,
                -0.13593804836273193,
                -0.13368375599384308,
                -0.1317257285118103,
                -0.12964040040969849,
                -0.12756693363189697,
                -0.12536689639091492,
                -0.12332460284233093,
                -0.12081924080848694,
                -0.1186649277806282,
                -0.116341233253479,
                -0.11355476081371307,
                -0.10893352329730988,
                -0.10610900819301605,
                -0.10390155017375946,
                -0.10129372030496597,
                -0.099066354334354401,
                -0.097435854375362396,
                -0.095911622047424316,
                -0.093960270285606384,
                -0.093137525022029877,
                -0.092283755540847778,
                -0.091370359063148499,
                -0.090318940579891205,
                -0.089128360152244568,
                -0.08767121285200119,
                -0.086224019527435303,
                -0.08437424898147583,
                -0.082668617367744446,
                -0.080339834094047546,
                -0.077520743012428284,
                -0.074067384004592896,
                -0.070087045431137085,
                -0.065749391913414001,
                -0.061079449951648712,
                -0.056252211332321167,
                -0.052607052028179169,
                -0.049249578267335892,
                -0.044962853193283081,
                -0.039856061339378357,
                -0.034586608409881592,
                -0.02326691523194313,
                -0.018870875239372253,
                -0.014883055351674557,
                -0.011796899139881134,
                -0.0086794570088386536,
                -0.005285442341119051,
                -0.0019400729797780514,
                0.0034370990470051765,
                0.0094071738421916962,
                0.016488894820213318,
                0.022678447887301445,
                0.030085444450378418,
                0.036247871816158295,
                0.040798336267471313,
                0.045382671058177948,
                0.04980730265378952,
                0.06236552819609642,
                0.066743433475494385,
                0.070540003478527069,
                0.072576172649860382,
                0.073929078876972198,
                0.075006544589996338,
                0.075968727469444275,
                0.076857969164848328,
                0.078637599945068359,
                0.079295039176940918,
                0.079804345965385437,
                0.080167099833488464,
                0.080956220626831055,
                0.081157781183719635,
                0.08131767064332962,
                0.08152441680431366,
                0.081681787967681885,
                0.081896662712097168,
                0.082271873950958252,
                0.083069488406181335,
                0.084285713732242584,
                0.084555849432945251,
                0.084787845611572266,
                0.085372447967529297,
                0.085620418190956116,
                0.086768224835395813,
                0.089669518172740936,
                0.090397432446479797,
                0.092004887759685516,
                0.093296289443969727,
                0.093913763761520386,
                0.095499910414218903,
                0.097100377082824707,
                0.097313657402992249,
                0.097591474652290344,
                0.098499014973640442,
                0.098826438188552856,
                0.099114403128623962,
                0.10012157261371613,
                0.10062885284423828,
                0.10155440866947174,
                0.1033829003572464,
                0.10411272197961807,
                0.10494765639305115,
                0.1056893914937973,
                0.10654830932617188,
                0.10756032168865204,
                0.10874257981777191,
                0.11104467511177063,
                0.11252638697624207,
                0.11407983303070068,
                0.11613297462463379,
                0.11841310560703278,
                0.12053456157445908,
                0.12276487797498703,
                0.12514562904834747,
                0.12710657715797424,
                0.12988097965717316,
                0.13264831900596619,
                0.13580046594142914,
                0.14015159010887146,
                0.14466527104377747,
                0.15098357200622559,
                0.16007471084594727,
                0.17048656940460205,
                0.18965256214141846,
                0.20540919899940491,
                0.22645646333694458,
                0.24308571219444275,
                0.25781986117362976,
                0.27062490582466125,
                0.27965924143791199,
                0.29088136553764343,
                0.30271860957145691,
                0.31436365842819214,
                0.32402956485748291,
                0.33115696907043457,
                0.33923447132110596,
                0.34701481461524963,
                0.35689640045166016,
                0.37102308869361877,
                0.39950892329216003
              ],
            "feature_id":"",
            "feature_index":1,
            "flat_feature_index":1,
            "has_nans":false,
            "nan_value_treatment":"AsIs"
          },
          {
            "borders":
              [
                -0.16689938306808472,
                -0.13928085565567017,
                -0.11375939100980759,
                -0.098789721727371216,
                -0.09312932938337326,
                -0.085874751210212708,
                -0.081641823053359985,
                -0.075692698359489441,
                -0.07127012312412262,
                -0.066234394907951355,
                -0.059802249073982239,
                -0.055101610720157623,
                -0.049922637641429901,
                -0.038449376821517944,
                -0.03058282844722271,
                -0.026469789445400238,
                -0.024568088352680206,
                -0.022970834746956825,
                -0.020847924053668976,
                -0.016873929649591446,
                -0.013840142637491226,
                -0.010788179934024811,
                -0.010288786143064499,
                -0.0098957791924476624,
                -0.0070206033997237682,
                -0.0041168583557009697,
                -0.0037554360460489988,
                -0.0032305279746651649,
                -0.0029405476525425911,
                -0.0023805499076843262,
                -0.0020315414294600487,
                -0.0018709237920120358,
                -0.00093023141380399466,
                -0.00086292286869138479,
                -0.00079938763519749045,
                -0.00040651403833180666,
                0.0005832938477396965,
                0.00063410622533410788,
                0.00069565698504447937,
                0.00096853403374552727,
                0.0011118282563984394,
                0.0012309970334172249,
                0.0014591895742341876,
                0.001789153553545475,
                0.0018754089251160622,
                0.0023170989006757736,
                0.0028682486154139042,
                0.003141812514513731,
                0.0031545353122055531,
                0.0031776539981365204,
                0.0032195618841797113,
                0.0032371431589126587,
                0.0032627377659082413,
                0.0033492692746222019,
                0.0037456615827977657,
                0.0038049723953008652,
                0.0038329437375068665,
                0.0042345291003584862,
                0.0045728348195552826,
                0.005523165687918663,
                0.0057018897496163845,
                0.0060420073568820953,
                0.0061619710177183151,
                0.0071923434734344482,
                0.0085163414478302002,
                0.0087798889726400375,
                0.009017040953040123,
                0.009251701645553112,
                0.0096669606864452362,
                0.010248178616166115,
                0.010696128010749817,
                0.012871786952018738,
                0.014282984659075737,
                0.01621665433049202,
                0.017337875440716743,
                0.022464806213974953,
                0.040377572178840637,
                0.043871425092220306,
                0.047998011112213135,
                0.051435865461826324,
                0.056431643664836884,
                0.058993645012378693,
                0.06321224570274353,
                0.065520063042640686,
                0.070420548319816589,
                0.07414168119430542,
                0.088302455842494965,
                0.10390506684780121
              ],
            "feature_id":"",
            "feature_index":2,
            "flat_feature_index":2,
            "has_nans":false,
            "nan_value_treatment":"AsIs"
          },
          {
            "borders":
              [
                -0.75,
                -0.41666668653488159,
                -0.29166668653488159,
                -0.22499999403953552,
                -0.18333333730697632,
                -0.1547619104385376,
                -0.1339285671710968,
                -0.1180555522441864,
                -0.10555555671453476,
                -0.095454543828964233,
                -0.08712121844291687,
                -0.080128207802772522,
                -0.074175827205181122,
                -0.069047622382640839,
                -0.064583331346511841,
                -0.057189542800188065,
                -0.05409356951713562,
                -0.0513157919049263,
                -0.019230769947171211,
                0.012195121496915817,
                0.039351850748062134,
                0.042572464793920517,
                0.045548655092716217,
                0.05409356951713562,
                0.060661762952804565,
                0.069047622382640839,
                0.08712121844291687,
                0.095454543828964233,
                0.10555555671453476,
                0.1180555522441864,
                0.1339285671710968,
                0.17142857611179352,
                0.22499999403953552
              ],
            "feature_id":"",
            "feature_index":3,
            "flat_feature_index":3,
            "has_nans":false,
            "nan_value_treatment":"AsIs"
          },
          {
            "borders":
              [
                0.018326453864574432,
                0.029747359454631805,
                0.03203447163105011,
                0.033942900598049164,
                0.038782965391874313,
                0.042420320212841034,
                0.044445600360631943,
                0.045630395412445068,
                0.047085151076316833,
                0.048914242535829544,
                0.049348413944244385,
                0.052090864628553391,
                0.052120044827461243,
                0.053784005343914032,
                0.05438348650932312,
                0.056119773536920547,
                0.056715954095125198,
                0.056774269789457321,
                0.057408317923545837,
                0.05803544819355011,
                0.059327423572540283,
                0.059737209230661392,
                0.059896692633628845,
                0.061345677822828293,
                0.062498979270458221,
                0.062694236636161804,
                0.065500512719154358,
                0.065850451588630676,
                0.066936664283275604,
                0.067123532295227051,
                0.068649455904960632,
                0.072078593075275421,
                0.075122281908988953,
                0.07573932409286499,
                0.081423424184322357,
                0.083355598151683807,
                0.083955466747283936,
                0.08643069863319397,
                0.089096024632453918,
                0.089662596583366394,
                0.091860935091972351,
                0.092455640435218811,
                0.093842223286628723,
                0.096672788262367249,
                0.10155142843723297,
                0.10304400324821472,
                0.10602439939975739,
                0.10730704665184021,
                0.10898803174495697,
                0.11417166143655777,
                0.11765467375516891,
                0.12724100053310394,
                0.13953685760498047,
                0.15282274782657623,
                0.17700058221817017
              ],
            "feature_id":"",
            "feature_index":4,
            "flat_feature_index":4,
            "has_nans":false,
            "nan_value_treatment":"AsIs"
          },
          {
            "borders":
              [
                -0.21796013414859772,
                -0.18597182631492615,
                -0.17264264822006226,
                -0.16079932451248169,
                -0.15536758303642273,
                -0.14933320879936218,
                -0.13986454904079437,
                -0.12787412106990814,
                -0.1232672780752182,
                -0.11791132390499115,
                -0.11606700718402863,
                -0.11429695039987564,
                -0.10899008065462112,
                -0.1073688417673111,
                -0.10634814202785492,
                -0.10287285596132278,
                -0.096994325518608093,
                -0.092491000890731812,
                -0.082139685750007629,
                -0.080745860934257507,
                -0.077488511800765991,
                -0.076218441128730774,
                -0.075886920094490051,
                -0.074601158499717712,
                -0.074301183223724365,
                -0.073290407657623291,
                -0.072671383619308472,
                -0.071923598647117615,
                -0.071413129568099976,
                -0.069152355194091797,
                -0.06896527111530304,
                -0.068268947303295135,
                -0.067834094166755676,
                -0.067433923482894897,
                -0.066985815763473511,
                -0.066854596138000488,
                -0.062845394015312195,
                -0.061356138437986374,
                -0.061003267765045166,
                -0.057141304016113281,
                -0.056687653064727783,
                -0.056588847190141678,
                -0.056439824402332306,
                -0.056306153535842896,
                -0.055619791150093079,
                -0.054013371467590332,
                -0.05390508845448494,
                -0.053063653409481049,
                -0.052681185305118561,
                -0.052608121186494827,
                -0.049274064600467682,
                -0.048823438584804535,
                -0.045770831406116486,
                -0.044964797794818878,
                -0.041323557496070862,
                -0.040246129035949707,
                -0.039034388959407806,
                -0.035395529121160507,
                -0.033575244247913361
              ],
            "feature_id":"",
            "feature_index":5,
            "flat_feature_index":5,
            "has_nans":false,
            "nan_value_treatment":"AsIs"
          },
          {
            "borders":
              [
                0.074449777603149414,
                0.077783957123756409,
                0.080431371927261353,
                0.087954550981521606,
                0.094610482454299927,
                0.10291355103254318,
                0.1091654896736145,
                0.11025790125131607,
                0.11298531293869019,
                0.114061638712883,
                0.11439734697341919,
                0.11595476418733597,
                0.11650192737579346,
                0.12131367623806,
                0.12150420248508453,
                0.12185497581958771,
                0.12457049638032913,
                0.12604957818984985,
                0.12683464586734772,
                0.12769494950771332,
                0.12824657559394836,
                0.12865126132965088,
                0.12895382940769196,
                0.12914666533470154,
                0.13097637891769409,
                0.13928994536399841,
                0.13963976502418518,
                0.14001701772212982,
                0.14037981629371643,
                0.14085590839385986,
                0.14329957962036133,
                0.14396616816520691,
                0.14468592405319214,
                0.14692869782447815,
                0.14795166254043579,
                0.15432111918926239,
                0.15862280130386353,
                0.15918324887752533,
                0.16105346381664276,
                0.1614488959312439,
                0.16283996403217316,
                0.1805117130279541,
                0.182536780834198,
                0.18439638614654541,
                0.19070056080818176,
                0.19286695122718811,
                0.22268342971801758,
                0.22675310075283051,
                0.23315367102622986,
                0.23975737392902374,
                0.2477327287197113,
                0.25967180728912354,
                0.27059268951416016,
                0.30835601687431335,
                0.3499566912651062
              ],
            "feature_id":"",
            "feature_index":6,
            "flat_feature_index":6,
            "has_nans":false,
            "nan_value_treatment":"AsIs"
          },
          {
            "borders":
              [
                0.018141407519578934,
                0.019907798618078232,
                0.023844141513109207,
                0.027413655072450638,
                0.02942398376762867,
                0.03453422337770462,
                0.039009310305118561,
                0.04094947874546051,
                0.044258411973714828,
                0.045594844967126846,
                0.046834513545036316,
                0.04974076896905899,
                0.051367886364459991,
                0.056421883404254913,
                0.061354145407676697,
                0.06379351019859314,
                0.065647304058074951,
                0.071532398462295532,
                0.076135411858558655,
                0.082908123731613159,
                0.085144937038421631,
                0.10871747881174088,
                0.11363068222999573,
                0.11394140124320984,
                0.12401235103607178,
                0.1250281035900116,
                0.13076984882354736,
                0.14163543283939362,
                0.14553889632225037,
                0.14962649345397949,
                0.15515966713428497,
                0.15939116477966309,
                0.16470466554164886,
                0.17803260684013367,
                0.18040618300437927,
                0.18746748566627502,
                0.18864521384239197,
                0.19545531272888184,
                0.19924074411392212,
                0.20866957306861877,
                0.20937108993530273,
                0.21186074614524841,
                0.21271425485610962,
                0.21803721785545349,
                0.21910803020000458,
                0.22209613025188446,
                0.22681452333927155,
                0.22764386236667633,
                0.22904065251350403,
                0.2339109480381012,
                0.23507744073867798,
                0.23728542029857635,
                0.24155673384666443,
                0.24229690432548523,
                0.2455390989780426,
                0.24589347839355469,
                0.25417381525039673,
                0.25583750009536743,
                0.2583012580871582,
                0.26235741376876831,
                0.26676380634307861,
                0.26903307437896729,
                0.27133363485336304,
                0.27573913335800171,
                0.27719086408615112,
                0.27790343761444092,
                0.2817305326461792,
                0.2835392951965332,
                0.28620412945747375,
                0.29258924722671509,
                0.29454907774925232,
                0.2951226532459259,
                0.30226591229438782,
                0.30632349848747253,
                0.31011894345283508,
                0.3124428391456604,
                0.31755363941192627,
                0.32056903839111328,
                0.32809966802597046,
                0.34925174713134766,
                0.37004515528678894,
                0.37652561068534851,
                0.41771584749221802,
                0.43323954939842224,
                0.4924161434173584,
                0.52467590570449829,
                0.59309667348861694,
                0.75354361534118652
              ],
            "feature_id":"",
            "feature_index":7,
            "flat_feature_index":7,
            "has_nans":false,
            "nan_value_treatment":"AsIs"
          },
          {
            "borders":
              [
                -0.82170748710632324,
                -0.68742936849594116,
                -0.57957768440246582,
                -0.55039036273956299,
                -0.49464467167854309,
                -0.45090782642364502,
                -0.41865074634552002,
                -0.41121917963027954,
                -0.40291476249694824,
                -0.39546465873718262,
                -0.37971949577331543,
                -0.36132928729057312,
                -0.33140242099761963,
                -0.32471132278442383,
                -0.31927531957626343,
                -0.31012433767318726,
                -0.30123564600944519,
                -0.29579451680183411,
                -0.29314488172531128,
                -0.28643602132797241,
                -0.24947744607925415,
                -0.23413768410682678,
                -0.2326112687587738,
                -0.22840070724487305,
                -0.2268822193145752,
                -0.22503215074539185,
                -0.22339993715286255,
                -0.22169029712677002,
                -0.22014603018760681,
                -0.21882778406143188,
                -0.21734815835952759,
                -0.21495091915130615,
                -0.21229757368564606,
                -0.20917075872421265,
                -0.20490756630897522,
                -0.20336997509002686,
                -0.20004534721374512,
                -0.192435622215271,
                -0.1854749321937561,
                -0.18106767535209656,
                -0.17766301333904266,
                -0.17605483531951904,
                -0.16878969967365265,
                -0.16781830787658691,
                -0.16370363533496857,
                -0.16270603239536285,
                -0.15838171541690826,
                -0.15631073713302612,
                -0.15297387540340424,
                -0.15265917778015137,
                -0.15038231015205383,
                -0.14850768446922302,
                -0.14826932549476624,
                -0.14605894684791565,
                -0.14511582255363464,
                -0.14382877945899963,
                -0.14227944612503052,
                -0.13910223543643951,
                -0.11517412215471268,
                -0.11388424038887024,
                -0.10991515964269638,
                -0.10451902449131012,
                -0.10080387443304062,
                -0.088390082120895386,
                -0.065065689384937286,
                -0.060016259551048279,
                -0.056422322988510132,
                -0.045989867299795151,
                -0.045655481517314911,
                -0.044332079589366913,
                -0.043536938726902008,
                -0.040495462715625763,
                -0.03892810270190239,
                -0.038048088550567627,
                -0.034194082021713257,
                -0.02965850755572319,
                -0.018548272550106049
              ],
            "feature_id":"",
            "feature_index":8,
            "flat_feature_index":8,
            "has_nans":false,
            "nan_value_treatment":"AsIs"
          }
        ]
    },
  "model_info":
    {
      "catboost_version_info":"Git info:\n    Commit: 0bcf252505e3d1cf01acd925dcd7026799512fb9\n    Branch: tags/v1.2.8\n    Author: akhropov <akhropov@yandex-team.com>\n    Summary: CatBoost Release 1.2.8. commit_hash:2f3bd095bc4e3a4c5ef9b0dcaf6f7f1a9d2bc3e7\n    git-svn info:\n    Last Changed Rev: 9293085\n\nOther info:\n    Build by: runneradmin\n    Top src dir: D:/a/catboost/catboost/catboost\n",
      "model_guid":"d0988e50-9c366f1f-1b0040a1-27eedbfb",
      "output_options":"{\"name\":\"experiment\",\"verbose\":1,\"test_error_log\":\"test_error.tsv\",\"json_log\":\"catboost_training.json\",\"result_model_file\":\"model\",\"roc_file\":\"\",\"eval_file_name\":\"\",\"use_best_model\":true,\"allow_writing_files\":true,\"prediction_type\":[\"RawFormulaVal\"],\"fstr_internal_file\":\"\",\"output_columns\":[\"SampleId\",\"RawFormulaVal\",\"Label\"],\"snapshot_interval\":600,\"time_left_log\":\"time_left.tsv\",\"fstr_type\":\"FeatureImportance\",\"profile_log\":\"catboost_profile.log\",\"train_dir\":\"catboost_info\",\"learn_error_log\":\"learn_error.tsv\",\"training_options_file\":\"\",\"snapshot_file\":\"experiment.cbsnapshot\",\"save_snapshot\":false,\"model_format\":[\"CatboostBinary\"],\"final_feature_calcer_computation_mode\":\"Default\",\"metric_period\":1,\"output_borders\":\"\",\"final_ctr_computation_mode\":\"Default\",\"best_model_min_trees\":1,\"fstr_regular_file\":\"\"}",
      "params":
        {
          "boosting_options":
            {
              "approx_on_full_history":false,
              "boost_from_average":true,
              "boosting_type":"Plain",
              "fold_len_multiplier":2,
              "fold_permutation_block":0,
              "iterations":20000,
              "learning_rate":1,
              "model_shrink_mode":"Constant",
              "model_shrink_rate":0,
              "od_config":
                {
                  "stop_pvalue":0,
                  "type":"Iter",
                  "wait_iterations":100
                },
              "permutation_count":4,
              "posterior_sampling":false
            },
          "cat_feature_params":
            {
              "combinations_ctrs":
                [
                  {
                    "ctr_binarization":
                      {
                        "border_count":15,
                        "border_type":"Uniform"
                      },
                    "ctr_type":"Borders",
                    "prior_estimation":"No",
                    "priors":
                      [
                        [
                          0,
                          1
                        ],
                        [
                          0.5,
                          1
                        ],
                        [
                          1,
                          1
                        ]
                      ],
                    "target_binarization":
                      {
                        "border_count":1,
                        "border_type":"MinEntropy"
                      }
                  },
                  {
                    "ctr_binarization":
                      {
                        "border_count":15,
                        "border_type":"Uniform"
                      },
                    "ctr_type":"Counter",
                    "prior_estimation":"No",
                    "priors":
                      [
                        [
                          0,
                          1
                        ]
                      ]
                  }
                ],
              "counter_calc_method":"SkipTest",
              "ctr_leaf_count_limit":18446744073709551615,
              "max_ctr_complexity":4,
              "one_hot_max_size":2,
              "per_feature_ctrs":
                {
                },
              "simple_ctrs":
                [
                  {
                    "ctr_binarization":
                      {
                        "border_count":15,
                        "border_type":"Uniform"
                      },
                    "ctr_type":"Borders",
                    "prior_estimation":"No",
                    "priors":
                      [
                        [
                          0,
                          1
                        ],
                        [
                          0.5,
                          1
                        ],
                        [
                          1,
                          1
                        ]
                      ],
                    "target_binarization":
                      {
                        "border_count":1,
                        "border_type":"MinEntropy"
                      }
                  },
                  {
                    "ctr_binarization":
                      {
                        "border_count":15,
                        "border_type":"Uniform"
                      },
                    "ctr_type":"Counter",
                    "prior_estimation":"No",
                    "priors":
                      [
                        [
                          0,
                          1
                        ]
                      ]
                  }
                ],
              "store_all_simple_ctr":false,
              "target_binarization":
                {
                  "border_count":1,
                  "border_type":"MinEntropy"
                }
            },
          "data_processing_options":
            {
              "allow_const_label":false,
              "auto_class_weights":"None",
              "class_names":
                [
                ],
              "class_weights":
                [
                ],
              "classes_count":0,
              "dev_default_value_fraction_for_sparse":0.82999998331069946,
              "dev_group_features":false,
              "dev_leafwise_scoring":false,
              "dev_sparse_array_indexing":"Indices",
              "embedding_processing_options":
                {
                  "embedding_processing":
                    {
                      "default":
                        [
                          "LDA",
                          "KNN"
                        ]
                    }
                },
              "eval_fraction":0,
              "float_features_binarization":
                {
                  "border_count":254,
                  "border_type":"GreedyLogSum",
                  "dev_max_subset_size_for_build_borders":200000,
                  "nan_mode":"Min"
                },
              "force_unit_auto_pair_weights":false,
              "has_time":false,
              "ignored_features":
                [
                ],
              "per_float_feature_quantization":
                {
                },
              "target_border":null,
              "text_processing_options":
                {
                  "dictionaries":
                    [
                      {
                        "dictionary_id":"BiGram",
                        "end_of_sentence_token_policy":"Skip",
                        "end_of_word_token_policy":"Insert",
                        "gram_order":"2",
                        "max_dictionary_size":"50000",
                        "occurrence_lower_bound":"5",
                        "skip_step":"0",
                        "start_token_id":"0",
                        "token_level_type":"Word"
                      },
                      {
                        "dictionary_id":"Word",
                        "end_of_sentence_token_policy":"Skip",
                        "end_of_word_token_policy":"Insert",
                        "gram_order":"1",
                        "max_dictionary_size":"50000",
                        "occurrence_lower_bound":"5",
                        "skip_step":"0",
                        "start_token_id":"0",
                        "token_level_type":"Word"
                      }
                    ],
                  "feature_processing":
                    {
                      "default":
                        [
                          {
                            "dictionaries_names":
                              [
                                "BiGram",
                                "Word"
                              ],
                            "feature_calcers":
                              [
                                "BoW"
                              ],
                            "tokenizers_names":
                              [
                                "Space"
                              ]
                          }
                        ]
                    },
                  "tokenizers":
                    [
                      {
                        "delimiter":" ",
                        "languages":
                          [
                          ],
                        "lemmatizing":"0",
                        "lowercasing":"0",
                        "number_process_policy":"LeaveAsIs",
                        "number_token":"🔢",
                        "separator_type":"ByDelimiter",
                        "skip_empty":"1",
                        "split_by_set":"0",
                        "subtokens_policy":"SingleToken",
                        "token_types":
                          [
                            "Number",
                            "Unknown",
                            "Word"
                          ],
                        "tokenizer_id":"Space"
                      }
                    ]
                }
            },
          "detailed_profile":false,
          "flat_params":
            {
              "depth":2,
              "iterations":20000,
              "l2_leaf_reg":2500,
              "learning_rate":1,
              "loss_function":"RMSE",
              "od_type":"Iter",
              "od_wait":100,
              "verbose":1
            },
          "logging_level":"Verbose",
          "loss_function":
            {
              "params":
                {
                },
              "type":"RMSE"
            },
          "metadata":
            {
            },
          "metrics":
            {
              "custom_metrics":
                [
                ],
              "eval_metric":
                {
                  "params":
                    {
                    },
                  "type":"RMSE"
                },
              "objective_metric":
                {
                  "params":
                    {
                    },
                  "type":"RMSE"
                }
            },
          "pool_metainfo_options":
            {
              "tags":
                {
                }
            },
          "random_seed":0,
          "system_options":
            {
              "file_with_hosts":"hosts.txt",
              "node_port":0,
              "node_type":"SingleHost",
              "thread_count":24,
              "used_ram_limit":""
            },
          "task_type":"CPU",
          "tree_learner_options":
            {
              "bayesian_matrix_reg":0.10000000149011612,
              "bootstrap":
                {
                  "mvs_reg":null,
                  "subsample":0.80000001192092896,
                  "type":"MVS"
                },
              "depth":2,
              "dev_efb_max_buckets":1024,
              "dev_leafwise_approxes":false,
              "dev_score_calc_obj_block_size":5000000,
              "grow_policy":"SymmetricTree",
              "l2_leaf_reg":2500,
              "leaf_estimation_backtracking":"AnyImprovement",
              "leaf_estimation_iterations":1,
              "leaf_estimation_method":"Newton",
              "max_leaves":4,
              "min_data_in_leaf":1,
              "model_size_reg":0.5,
              "monotone_constraints":
                {
                },
              "penalties":
                {
                  "feature_weights":
                    {
                    },
                  "first_feature_use_penalties":
                    {
                    },
                  "penalties_coefficient":1,
                  "per_object_feature_penalties":
                    {
                    }
                },
              "random_score_type":"NormalWithModelSizeDecrease",
              "random_strength":1,
              "rsm":1,
              "sampling_frequency":"PerTree",
              "score_function":"Cosine",
              "sparse_features_conflict_fraction":0
            }
        },
      "train_finish_time":"2025-07-09T15:16:36Z",
      "training":"{\"metrics\":{\"best_iteration\":4062,\"learn_best_error\":{\"RMSE\":0.02148247014334932},\"test_metrics_history\":[[{\"RMSE\":0.0956523645117482}],[{\"RMSE\":0.0709066003950765}],[{\"RMSE\":0.06200528396198609}],[{\"RMSE\":0.053799756514645296}],[{\"RMSE\":0.05188724075833821}],[{\"RMSE\":0.04938550432473145}],[{\"RMSE\":0.04726807716314899}],[{\"RMSE\":0.04649311189686056}],[{\"RMSE\":0.046006503513401076}],[{\"RMSE\":0.045589899856670016}],[{\"RMSE\":0.04523370730336641}],[{\"RMSE\":0.045072070752217294}],[{\"RMSE\":0.044582212775850914}],[{\"RMSE\":0.04445434856775027}],[{\"RMSE\":0.044171551827290954}],[{\"RMSE\":0.044068073971039734}],[{\"RMSE\":0.04307437884003006}],[{\"RMSE\":0.04126700266608575}],[{\"RMSE\":0.04072316285573941}],[{\"RMSE\":0.04059417821406619}],[{\"RMSE\":0.0405236189540657}],[{\"RMSE\":0.04045784781779775}],[{\"RMSE\":0.040367274987586306}],[{\"RMSE\":0.04031406758865776}],[{\"RMSE\":0.0399581825521714}],[{\"RMSE\":0.03938840012614461}],[{\"RMSE\":0.03857525651127463}],[{\"RMSE\":0.03768426370030544}],[{\"RMSE\":0.0374612616268448}],[{\"RMSE\":0.03745942932686976}],[{\"RMSE\":0.03745766281486492}],[{\"RMSE\":0.037416306926823274}],[{\"RMSE\":0.03741459858106079}],[{\"RMSE\":0.0374125220298079}],[{\"RMSE\":0.037410825237708126}],[{\"RMSE\":0.03740910014898408}],[{\"RMSE\":0.037371582345355606}],[{\"RMSE\":0.03733724904771837}],[{\"RMSE\":0.03733574590856926}],[{\"RMSE\":0.0373340870796768}],[{\"RMSE\":0.03693573687236762}],[{\"RMSE\":0.036729679947755424}],[{\"RMSE\":0.03670003118178686}],[{\"RMSE\":0.036672680484381506}],[{\"RMSE\":0.036671137687506114}],[{\"RMSE\":0.03666957761863143}],[{\"RMSE\":0.03664439364908961}],[{\"RMSE\":0.03664306806102032}],[{\"RMSE\":0.03664176121441616}],[{\"RMSE\":0.03663982536375899}],[{\"RMSE\":0.03661702370128893}],[{\"RMSE\":0.03661565255854019}],[{\"RMSE\":0.03661428460339674}],[{\"RMSE\":0.036614221780587985}],[{\"RMSE\":0.036593007476417895}],[{\"RMSE\":0.03638408174002946}],[{\"RMSE\":0.03609441305024105}],[{\"RMSE\":0.035654172109016675}],[{\"RMSE\":0.035653922319279226}],[{\"RMSE\":0.03565413011395398}],[{\"RMSE\":0.03565358218093985}],[{\"RMSE\":0.03565372784923957}],[{\"RMSE\":0.035653107020498995}],[{\"RMSE\":0.035476008668231175}],[{\"RMSE\":0.035379647957790035}],[{\"RMSE\":0.035303434775029244}],[{\"RMSE\":0.035302341174012486}],[{\"RMSE\":0.03530102416464437}],[{\"RMSE\":0.035299949055571836}],[{\"RMSE\":0.03529888545093159}],[{\"RMSE\":0.0352977527236003}],[{\"RMSE\":0.035296755411537734}],[{\"RMSE\":0.035295675940214453}],[{\"RMSE\":0.03529468402448867}],[{\"RMSE\":0.03529372618472778}],[{\"RMSE\":0.035292792605765406}],[{\"RMSE\":0.03529167497830553}],[{\"RMSE\":0.03529077480814417}],[{\"RMSE\":0.03527687420731655}],[{\"RMSE\":0.03527600766397519}],[{\"RMSE\":0.03527507019173606}],[{\"RMSE\":0.03527410482859512}],[{\"RMSE\":0.03527328974851961}],[{\"RMSE\":0.03527249368786983}],[{\"RMSE\":0.03527248247128531}],[{\"RMSE\":0.03525967976656467}],[{\"RMSE\":0.03524810054971935}],[{\"RMSE\":0.03523750461285654}],[{\"RMSE\":0.035236759161804763}],[{\"RMSE\":0.03523676374621169}],[{\"RMSE\":0.035236763937493885}],[{\"RMSE\":0.03499449362678088}],[{\"RMSE\":0.034945772038929304}],[{\"RMSE\":0.034629220611564614}],[{\"RMSE\":0.03448057923969301}],[{\"RMSE\":0.03448008895090818}],[{\"RMSE\":0.03447946710025112}],[{\"RMSE\":0.03447872729488823}],[{\"RMSE\":0.034478137442332545}],[{\"RMSE\":0.034477438423493004}],[{\"RMSE\":0.03447685818055082}],[{\"RMSE\":0.03447650642086413}],[{\"RMSE\":0.03447613245195855}],[{\"RMSE\":0.034475444378543545}],[{\"RMSE\":0.03447481393881999}],[{\"RMSE\":0.03447419189843994}],[{\"RMSE\":0.034473583028265205}],[{\"RMSE\":0.03447296796383006}],[{\"RMSE\":0.03447242023752749}],[{\"RMSE\":0.03447186367994447}],[{\"RMSE\":0.034471276886440486}],[{\"RMSE\":0.03447142909732447}],[{\"RMSE\":0.03446274871827777}],[{\"RMSE\":0.03446293037270985}],[{\"RMSE\":0.03446233222572857}],[{\"RMSE\":0.03446172741856754}],[{\"RMSE\":0.0344612542575976}],[{\"RMSE\":0.034449518590646384}],[{\"RMSE\":0.03444005646553961}],[{\"RMSE\":0.03442997601902498}],[{\"RMSE\":0.034419851251701834}],[{\"RMSE\":0.034410208377039675}],[{\"RMSE\":0.03440052513698139}],[{\"RMSE\":0.034391340105808556}],[{\"RMSE\":0.03438241807881553}],[{\"RMSE\":0.03437340313010084}],[{\"RMSE\":0.034364892632698395}],[{\"RMSE\":0.03435631267111435}],[{\"RMSE\":0.0343479137142988}],[{\"RMSE\":0.03434064149331132}],[{\"RMSE\":0.0343311898507857}],[{\"RMSE\":0.034324535154293116}],[{\"RMSE\":0.034315831913731804}],[{\"RMSE\":0.034309559559181114}],[{\"RMSE\":0.034301438581746085}],[{\"RMSE\":0.034295510501168684}],[{\"RMSE\":0.03428931545277605}],[{\"RMSE\":0.034283118107149915}],[{\"RMSE\":0.034275555809057445}],[{\"RMSE\":0.03426751869153073}],[{\"RMSE\":0.03426339207219749}],[{\"RMSE\":0.0342578188506964}],[{\"RMSE\":0.03425777593025384}],[{\"RMSE\":0.03425808889151057}],[{\"RMSE\":0.034257723892981255}],[{\"RMSE\":0.03425793438478862}],[{\"RMSE\":0.034257575194220395}],[{\"RMSE\":0.03425779153647979}],[{\"RMSE\":0.034257444391476134}],[{\"RMSE\":0.03425761423071915}],[{\"RMSE\":0.034257620913376544}],[{\"RMSE\":0.03425723333979681}],[{\"RMSE\":0.03425280048114977}],[{\"RMSE\":0.03409094623274634}],[{\"RMSE\":0.03384684772108009}],[{\"RMSE\":0.033709939407500375}],[{\"RMSE\":0.03363897604322667}],[{\"RMSE\":0.03361856236703282}],[{\"RMSE\":0.03354941778685889}],[{\"RMSE\":0.03354292116300021}],[{\"RMSE\":0.03354099556841696}],[{\"RMSE\":0.03353981810941392}],[{\"RMSE\":0.03353835310896555}],[{\"RMSE\":0.033538255826690726}],[{\"RMSE\":0.033538187938134005}],[{\"RMSE\":0.033538475602061794}],[{\"RMSE\":0.03353870854005668}],[{\"RMSE\":0.033538833296242104}],[{\"RMSE\":0.03353884410665971}],[{\"RMSE\":0.03353884502151107}],[{\"RMSE\":0.03347864799947425}],[{\"RMSE\":0.03342751746326069}],[{\"RMSE\":0.033300472890920495}],[{\"RMSE\":0.03325556271027556}],[{\"RMSE\":0.033202252432826054}],[{\"RMSE\":0.03311446167939262}],[{\"RMSE\":0.032951187232717026}],[{\"RMSE\":0.03287362835492642}],[{\"RMSE\":0.032827564504106774}],[{\"RMSE\":0.03282108863256893}],[{\"RMSE\":0.03274736545357439}],[{\"RMSE\":0.03274170738306576}],[{\"RMSE\":0.03273713330610617}],[{\"RMSE\":0.032735486254064736}],[{\"RMSE\":0.03273320941291019}],[{\"RMSE\":0.03273174751651214}],[{\"RMSE\":0.03273023072052311}],[{\"RMSE\":0.032728766360559026}],[{\"RMSE\":0.03272736069401411}],[{\"RMSE\":0.03272601134060785}],[{\"RMSE\":0.03272471545449913}],[{\"RMSE\":0.03272221517086794}],[{\"RMSE\":0.03272108365775621}],[{\"RMSE\":0.03272017418464316}],[{\"RMSE\":0.03271923406555308}],[{\"RMSE\":0.032715387778739696}],[{\"RMSE\":0.03271423754923447}],[{\"RMSE\":0.0327091302825591}],[{\"RMSE\":0.03270691605351647}],[{\"RMSE\":0.03270303728545854}],[{\"RMSE\":0.03270210077404768}],[{\"RMSE\":0.032697545905189605}],[{\"RMSE\":0.03269745214313978}],[{\"RMSE\":0.03269746649956363}],[{\"RMSE\":0.0326929570104963}],[{\"RMSE\":0.032688904032285}],[{\"RMSE\":0.03268812442271276}],[{\"RMSE\":0.03268430093768582}],[{\"RMSE\":0.0326823580616019}],[{\"RMSE\":0.03268241393227935}],[{\"RMSE\":0.03268243870693457}],[{\"RMSE\":0.032682660066478984}],[{\"RMSE\":0.032682642322541366}],[{\"RMSE\":0.03268259192394528}],[{\"RMSE\":0.03268044998805891}],[{\"RMSE\":0.03267920991255978}],[{\"RMSE\":0.03267794685013801}],[{\"RMSE\":0.0326775094896664}],[{\"RMSE\":0.0326775598951838}],[{\"RMSE\":0.03267758758698262}],[{\"RMSE\":0.03267761164063283}],[{\"RMSE\":0.03267692986263136}],[{\"RMSE\":0.032676394720508324}],[{\"RMSE\":0.03267523291106777}],[{\"RMSE\":0.03267531180047235}],[{\"RMSE\":0.032674699817489695}],[{\"RMSE\":0.0326730184161779}],[{\"RMSE\":0.03267265282598181}],[{\"RMSE\":0.03266945570370817}],[{\"RMSE\":0.03265363393531691}],[{\"RMSE\":0.03265400077775712}],[{\"RMSE\":0.03265412580313259}],[{\"RMSE\":0.03265416327984991}],[{\"RMSE\":0.03265412623365974}],[{\"RMSE\":0.03265401792370507}],[{\"RMSE\":0.03265385633290046}],[{\"RMSE\":0.03265356144000821}],[{\"RMSE\":0.0326532807211642}],[{\"RMSE\":0.032652944732742335}],[{\"RMSE\":0.032652591145446136}],[{\"RMSE\":0.03265217949464984}],[{\"RMSE\":0.0326517369207344}],[{\"RMSE\":0.03265129519388337}],[{\"RMSE\":0.03265082883156658}],[{\"RMSE\":0.0326503692984734}],[{\"RMSE\":0.03264971210788644}],[{\"RMSE\":0.03264901671934961}],[{\"RMSE\":0.032648312058413745}],[{\"RMSE\":0.03264761084638259}],[{\"RMSE\":0.03264692035132274}],[{\"RMSE\":0.032646244849304375}],[{\"RMSE\":0.03264584541382876}],[{\"RMSE\":0.03264530913838573}],[{\"RMSE\":0.03264490562289571}],[{\"RMSE\":0.032644353609508965}],[{\"RMSE\":0.032643947977969226}],[{\"RMSE\":0.03264356583693098}],[{\"RMSE\":0.032642989217377266}],[{\"RMSE\":0.0326425829327762}],[{\"RMSE\":0.032642204251989805}],[{\"RMSE\":0.03264182396771983}],[{\"RMSE\":0.03264107939575264}],[{\"RMSE\":0.032640699168764116}],[{\"RMSE\":0.03264034576489367}],[{\"RMSE\":0.03263970151877292}],[{\"RMSE\":0.03263913510308097}],[{\"RMSE\":0.03263862856043629}],[{\"RMSE\":0.03263832627544055}],[{\"RMSE\":0.03263786736444876}],[{\"RMSE\":0.03257155207935958}],[{\"RMSE\":0.032494032164738756}],[{\"RMSE\":0.03248306202311724}],[{\"RMSE\":0.032472353529862004}],[{\"RMSE\":0.0324718801649721}],[{\"RMSE\":0.03247152322204362}],[{\"RMSE\":0.0324711783508013}],[{\"RMSE\":0.03247083711508}],[{\"RMSE\":0.032470498888544475}],[{\"RMSE\":0.03247040769903029}],[{\"RMSE\":0.03247032786238445}],[{\"RMSE\":0.032469969984578455}],[{\"RMSE\":0.03246115011465527}],[{\"RMSE\":0.032462856441231154}],[{\"RMSE\":0.03243860300818127}],[{\"RMSE\":0.03243880405935099}],[{\"RMSE\":0.032438906105944715}],[{\"RMSE\":0.032438716458978}],[{\"RMSE\":0.03243848694380114}],[{\"RMSE\":0.03243824954534032}],[{\"RMSE\":0.032438007965390384}],[{\"RMSE\":0.03243776331347911}],[{\"RMSE\":0.03234573167336687}],[{\"RMSE\":0.03231854216016255}],[{\"RMSE\":0.0323062178204517}],[{\"RMSE\":0.03227631215544215}],[{\"RMSE\":0.03224690974250116}],[{\"RMSE\":0.03219472586922724}],[{\"RMSE\":0.032168095379997756}],[{\"RMSE\":0.03213266142705115}],[{\"RMSE\":0.03213174269018324}],[{\"RMSE\":0.032129130279089785}],[{\"RMSE\":0.03210280597757608}],[{\"RMSE\":0.03210379177083144}],[{\"RMSE\":0.03210379985982496}],[{\"RMSE\":0.03210380412596229}],[{\"RMSE\":0.03210350428754646}],[{\"RMSE\":0.03210351491987765}],[{\"RMSE\":0.032102448851908105}],[{\"RMSE\":0.03210251114189591}],[{\"RMSE\":0.032101532538680554}],[{\"RMSE\":0.03210061166301108}],[{\"RMSE\":0.032100694146030714}],[{\"RMSE\":0.0321007198809498}],[{\"RMSE\":0.03210067201143067}],[{\"RMSE\":0.032099908248661935}],[{\"RMSE\":0.032099107131755816}],[{\"RMSE\":0.03209915607259408}],[{\"RMSE\":0.03209825023856771}],[{\"RMSE\":0.03209738357042725}],[{\"RMSE\":0.03209753423710689}],[{\"RMSE\":0.032097555695329565}],[{\"RMSE\":0.032089362724041906}],[{\"RMSE\":0.03208711147631833}],[{\"RMSE\":0.03205980542573961}],[{\"RMSE\":0.032031763446803994}],[{\"RMSE\":0.03202526167341233}],[{\"RMSE\":0.03202520171256908}],[{\"RMSE\":0.03202488731845185}],[{\"RMSE\":0.032024626194476644}],[{\"RMSE\":0.03202429120825803}],[{\"RMSE\":0.03202392299352623}],[{\"RMSE\":0.03202360027453312}],[{\"RMSE\":0.03202338563646068}],[{\"RMSE\":0.03202319463541624}],[{\"RMSE\":0.032023045884413535}],[{\"RMSE\":0.032022903567530084}],[{\"RMSE\":0.03197658990202652}],[{\"RMSE\":0.03196951318970619}],[{\"RMSE\":0.03196405602218018}],[{\"RMSE\":0.03196384122521369}],[{\"RMSE\":0.03196371032788546}],[{\"RMSE\":0.0319380859044287}],[{\"RMSE\":0.03191572474344923}],[{\"RMSE\":0.03191553960482493}],[{\"RMSE\":0.03191544724363083}],[{\"RMSE\":0.0319153766643844}],[{\"RMSE\":0.031893076613081675}],[{\"RMSE\":0.03187660433541281}],[{\"RMSE\":0.0318597417939398}],[{\"RMSE\":0.0318600495580627}],[{\"RMSE\":0.03186032442309009}],[{\"RMSE\":0.03186016125554409}],[{\"RMSE\":0.031855365098676744}],[{\"RMSE\":0.03184158485054166}],[{\"RMSE\":0.031836523180695596}],[{\"RMSE\":0.031836326496626544}],[{\"RMSE\":0.031836234847363955}],[{\"RMSE\":0.0318061694909311}],[{\"RMSE\":0.0317424719840596}],[{\"RMSE\":0.03174174037740655}],[{\"RMSE\":0.03170060796960212}],[{\"RMSE\":0.031665267547738296}],[{\"RMSE\":0.03163568931442218}],[{\"RMSE\":0.03161158504619701}],[{\"RMSE\":0.03159694268156071}],[{\"RMSE\":0.031588119036200166}],[{\"RMSE\":0.03155951858556336}],[{\"RMSE\":0.031558906122430716}],[{\"RMSE\":0.03155739772776828}],[{\"RMSE\":0.031556644594053586}],[{\"RMSE\":0.031555848593820504}],[{\"RMSE\":0.031555224158371274}],[{\"RMSE\":0.03155450629022637}],[{\"RMSE\":0.031553732886291486}],[{\"RMSE\":0.03155295922882271}],[{\"RMSE\":0.0315521900693013}],[{\"RMSE\":0.03155226376325454}],[{\"RMSE\":0.03155227025781327}],[{\"RMSE\":0.031529285070223845}],[{\"RMSE\":0.03153129515933272}],[{\"RMSE\":0.03153143346969211}],[{\"RMSE\":0.03152753767208323}],[{\"RMSE\":0.031526802440892926}],[{\"RMSE\":0.03152598586198255}],[{\"RMSE\":0.031526044961748226}],[{\"RMSE\":0.03152589548324621}],[{\"RMSE\":0.03152596694267653}],[{\"RMSE\":0.03152597317939874}],[{\"RMSE\":0.03152597370750267}],[{\"RMSE\":0.031519794307647064}],[{\"RMSE\":0.031519448224571645}],[{\"RMSE\":0.031519051507326444}],[{\"RMSE\":0.03151866091936387}],[{\"RMSE\":0.03148508592540516}],[{\"RMSE\":0.031480697426064984}],[{\"RMSE\":0.03148013105942002}],[{\"RMSE\":0.031462511843468356}],[{\"RMSE\":0.03145844490383195}],[{\"RMSE\":0.031458484870650345}],[{\"RMSE\":0.03145797957815615}],[{\"RMSE\":0.03145757262585978}],[{\"RMSE\":0.03145721784606069}],[{\"RMSE\":0.031456892404697456}],[{\"RMSE\":0.031456585695411536}],[{\"RMSE\":0.03144115446687701}],[{\"RMSE\":0.031432683418321325}],[{\"RMSE\":0.03142467254048896}],[{\"RMSE\":0.0314093129240482}],[{\"RMSE\":0.03140913221173336}],[{\"RMSE\":0.031410086033068545}],[{\"RMSE\":0.03140998065990036}],[{\"RMSE\":0.03136707212438442}],[{\"RMSE\":0.03134539313682147}],[{\"RMSE\":0.0313320932798695}],[{\"RMSE\":0.031321211452769886}],[{\"RMSE\":0.03129613127253288}],[{\"RMSE\":0.0312902171187698}],[{\"RMSE\":0.03129003021575586}],[{\"RMSE\":0.03128981256536338}],[{\"RMSE\":0.03128958493347091}],[{\"RMSE\":0.03128935697827753}],[{\"RMSE\":0.0312891330085175}],[{\"RMSE\":0.03128891486082747}],[{\"RMSE\":0.03127617249238643}],[{\"RMSE\":0.03126339978205536}],[{\"RMSE\":0.03126313039384202}],[{\"RMSE\":0.03126293815653957}],[{\"RMSE\":0.031262761853346775}],[{\"RMSE\":0.03126259392506979}],[{\"RMSE\":0.031262432610214996}],[{\"RMSE\":0.031252574217183304}],[{\"RMSE\":0.03125016957185376}],[{\"RMSE\":0.03124367592155474}],[{\"RMSE\":0.031243603398300027}],[{\"RMSE\":0.0312435224202796}],[{\"RMSE\":0.03124287175736037}],[{\"RMSE\":0.031242952648568547}],[{\"RMSE\":0.03124222257625924}],[{\"RMSE\":0.031241536965767577}],[{\"RMSE\":0.03124160777489018}],[{\"RMSE\":0.03124158604736952}],[{\"RMSE\":0.031241652605037258}],[{\"RMSE\":0.031241754061896186}],[{\"RMSE\":0.031241814074100212}],[{\"RMSE\":0.031241053498570114}],[{\"RMSE\":0.0312410817998964}],[{\"RMSE\":0.031241092231937207}],[{\"RMSE\":0.03124116298036163}],[{\"RMSE\":0.03124114335033511}],[{\"RMSE\":0.03124115885945787}],[{\"RMSE\":0.031241159713483256}],[{\"RMSE\":0.0312411876660745}],[{\"RMSE\":0.031226194925917855}],[{\"RMSE\":0.031207778333073484}],[{\"RMSE\":0.031200268708933974}],[{\"RMSE\":0.03120072012526238}],[{\"RMSE\":0.031199978739425833}],[{\"RMSE\":0.031195415926435672}],[{\"RMSE\":0.031195184593413097}],[{\"RMSE\":0.03119513992727031}],[{\"RMSE\":0.03119448903503345}],[{\"RMSE\":0.031194485360292}],[{\"RMSE\":0.031194569940049134}],[{\"RMSE\":0.031194575590258573}],[{\"RMSE\":0.031194530523629374}],[{\"RMSE\":0.03119455066725132}],[{\"RMSE\":0.031194581427099445}],[{\"RMSE\":0.031193985337566416}],[{\"RMSE\":0.031194043627156803}],[{\"RMSE\":0.031193493307324103}],[{\"RMSE\":0.031193021327925466}],[{\"RMSE\":0.03119308585496116}],[{\"RMSE\":0.031193147622497402}],[{\"RMSE\":0.031193596352408086}],[{\"RMSE\":0.031192849841949664}],[{\"RMSE\":0.031193538231618686}],[{\"RMSE\":0.031170505917802804}],[{\"RMSE\":0.031160193894328544}],[{\"RMSE\":0.031153896366350697}],[{\"RMSE\":0.031155143558452697}],[{\"RMSE\":0.03115452424547472}],[{\"RMSE\":0.031154596464210718}],[{\"RMSE\":0.03115464313597029}],[{\"RMSE\":0.03115459733374522}],[{\"RMSE\":0.031154637595756204}],[{\"RMSE\":0.031154616765516705}],[{\"RMSE\":0.03115460865132035}],[{\"RMSE\":0.031153991103588997}],[{\"RMSE\":0.031153404459655608}],[{\"RMSE\":0.031153407647927504}],[{\"RMSE\":0.031152853935831462}],[{\"RMSE\":0.03115215523337846}],[{\"RMSE\":0.031152223131612825}],[{\"RMSE\":0.031151661964413203}],[{\"RMSE\":0.03115162616199045}],[{\"RMSE\":0.031151663814956234}],[{\"RMSE\":0.031152679025069702}],[{\"RMSE\":0.031153654113578382}],[{\"RMSE\":0.03115365186144686}],[{\"RMSE\":0.031153467494503376}],[{\"RMSE\":0.031148369057070236}],[{\"RMSE\":0.031149309080269222}],[{\"RMSE\":0.031149275656448008}],[{\"RMSE\":0.031149267483196647}],[{\"RMSE\":0.031148685092102186}],[{\"RMSE\":0.03114872395450208}],[{\"RMSE\":0.031148122522247974}],[{\"RMSE\":0.03113654574306188}],[{\"RMSE\":0.03112416182243135}],[{\"RMSE\":0.031099058341136493}],[{\"RMSE\":0.03109801926755032}],[{\"RMSE\":0.031097356178893754}],[{\"RMSE\":0.03108183437948976}],[{\"RMSE\":0.031075931136494973}],[{\"RMSE\":0.031076038669206447}],[{\"RMSE\":0.031076323379948288}],[{\"RMSE\":0.031077175258726934}],[{\"RMSE\":0.03107122555517326}],[{\"RMSE\":0.03107141979900697}],[{\"RMSE\":0.031071548292470573}],[{\"RMSE\":0.031071622100622826}],[{\"RMSE\":0.031071676507485487}],[{\"RMSE\":0.031071729045301717}],[{\"RMSE\":0.03107173392446288}],[{\"RMSE\":0.03106114380775837}],[{\"RMSE\":0.031055654617715756}],[{\"RMSE\":0.031055161556926527}],[{\"RMSE\":0.03105635798011301}],[{\"RMSE\":0.03105582092500456}],[{\"RMSE\":0.031055885261009705}],[{\"RMSE\":0.031055898381603157}],[{\"RMSE\":0.031055927649446105}],[{\"RMSE\":0.031056145459113543}],[{\"RMSE\":0.031056256709623992}],[{\"RMSE\":0.031050802555133792}],[{\"RMSE\":0.031050862826659108}],[{\"RMSE\":0.031050901509188343}],[{\"RMSE\":0.03105091756756228}],[{\"RMSE\":0.03105097835873662}],[{\"RMSE\":0.031050979012874656}],[{\"RMSE\":0.03105104009264714}],[{\"RMSE\":0.03105101885816391}],[{\"RMSE\":0.031051005297096996}],[{\"RMSE\":0.03105100519996571}],[{\"RMSE\":0.03105099686588381}],[{\"RMSE\":0.03105056156020038}],[{\"RMSE\":0.03105053222786489}],[{\"RMSE\":0.031050512212429802}],[{\"RMSE\":0.03105057140044937}],[{\"RMSE\":0.03103955358442083}],[{\"RMSE\":0.03103055365421175}],[{\"RMSE\":0.03102990094660062}],[{\"RMSE\":0.031021447179411177}],[{\"RMSE\":0.031007118631062043}],[{\"RMSE\":0.031006989094072263}],[{\"RMSE\":0.031005018400303085}],[{\"RMSE\":0.03100489453038819}],[{\"RMSE\":0.030981804432626412}],[{\"RMSE\":0.030970733008920677}],[{\"RMSE\":0.030962292405061598}],[{\"RMSE\":0.030954548545929286}],[{\"RMSE\":0.030948905691006546}],[{\"RMSE\":0.030943004183184353}],[{\"RMSE\":0.03093843844792792}],[{\"RMSE\":0.030924369804917647}],[{\"RMSE\":0.030910094687831124}],[{\"RMSE\":0.030910061814015264}],[{\"RMSE\":0.030911188939799814}],[{\"RMSE\":0.030911171101104445}],[{\"RMSE\":0.03091230565997151}],[{\"RMSE\":0.030913321544164027}],[{\"RMSE\":0.03091144537933155}],[{\"RMSE\":0.030912515389754883}],[{\"RMSE\":0.030912497539579996}],[{\"RMSE\":0.030913548899436386}],[{\"RMSE\":0.030913512719195946}],[{\"RMSE\":0.030914588304278564}],[{\"RMSE\":0.03091559848852368}],[{\"RMSE\":0.03091556213457066}],[{\"RMSE\":0.03091555920866958}],[{\"RMSE\":0.030915480148657172}],[{\"RMSE\":0.030914694975911892}],[{\"RMSE\":0.03091461668585784}],[{\"RMSE\":0.030914571192747334}],[{\"RMSE\":0.03091453268688071}],[{\"RMSE\":0.030914497488108893}],[{\"RMSE\":0.03091446432591174}],[{\"RMSE\":0.030914402859539003}],[{\"RMSE\":0.030914372658956697}],[{\"RMSE\":0.030914403864647437}],[{\"RMSE\":0.030914365288277408}],[{\"RMSE\":0.030914334016200293}],[{\"RMSE\":0.030914303730532444}],[{\"RMSE\":0.030914273814897603}],[{\"RMSE\":0.030914244173602456}],[{\"RMSE\":0.030913528725037862}],[{\"RMSE\":0.030913598362849955}],[{\"RMSE\":0.030913649338609336}],[{\"RMSE\":0.030913617976361246}],[{\"RMSE\":0.030913587305440495}],[{\"RMSE\":0.030913556795885117}],[{\"RMSE\":0.03091352643036793}],[{\"RMSE\":0.030913496225424775}],[{\"RMSE\":0.030913538603608577}],[{\"RMSE\":0.030913507138610834}],[{\"RMSE\":0.030914639129651623}],[{\"RMSE\":0.030915645400774322}],[{\"RMSE\":0.030915620515410063}],[{\"RMSE\":0.030915570191638406}],[{\"RMSE\":0.030915613711017458}],[{\"RMSE\":0.03091556645792803}],[{\"RMSE\":0.030915528568947408}],[{\"RMSE\":0.030911115387746598}],[{\"RMSE\":0.030912056240327473}],[{\"RMSE\":0.030911350322757}],[{\"RMSE\":0.03089847988256212}],[{\"RMSE\":0.03089846904815712}],[{\"RMSE\":0.03089810938344653}],[{\"RMSE\":0.03089804601747682}],[{\"RMSE\":0.030897487974505883}],[{\"RMSE\":0.030898461416306033}],[{\"RMSE\":0.03089842019925879}],[{\"RMSE\":0.030897936331448377}],[{\"RMSE\":0.030897969941237526}],[{\"RMSE\":0.030898997438696146}],[{\"RMSE\":0.030898959569011456}],[{\"RMSE\":0.030898956515428226}],[{\"RMSE\":0.030898985339730404}],[{\"RMSE\":0.03089855157739854}],[{\"RMSE\":0.030899523424840567}],[{\"RMSE\":0.030894088200693358}],[{\"RMSE\":0.030894084351178047}],[{\"RMSE\":0.03088891467968508}],[{\"RMSE\":0.030888901027757196}],[{\"RMSE\":0.030888890422655805}],[{\"RMSE\":0.03088894461632893}],[{\"RMSE\":0.030888961310168248}],[{\"RMSE\":0.03088894285206878}],[{\"RMSE\":0.030888909628437735}],[{\"RMSE\":0.030888387633134038}],[{\"RMSE\":0.030883544189666358}],[{\"RMSE\":0.030877619789548616}],[{\"RMSE\":0.030877596019287436}],[{\"RMSE\":0.030877626245907175}],[{\"RMSE\":0.030878696338940276}],[{\"RMSE\":0.030859663280048893}],[{\"RMSE\":0.030855820290262067}],[{\"RMSE\":0.030856375058553633}],[{\"RMSE\":0.030857305763688322}],[{\"RMSE\":0.03085791650509527}],[{\"RMSE\":0.030858737881129486}],[{\"RMSE\":0.030859568801997733}],[{\"RMSE\":0.03085945064167534}],[{\"RMSE\":0.030859468689759695}],[{\"RMSE\":0.030860175107761775}],[{\"RMSE\":0.03085971068069205}],[{\"RMSE\":0.03085964755083407}],[{\"RMSE\":0.030851282110463864}],[{\"RMSE\":0.030851973820491804}],[{\"RMSE\":0.03085600341704389}],[{\"RMSE\":0.030855895587644108}],[{\"RMSE\":0.030855915760737124}],[{\"RMSE\":0.030855955531608532}],[{\"RMSE\":0.03085600316789225}],[{\"RMSE\":0.030855504804731818}],[{\"RMSE\":0.030855515425771498}],[{\"RMSE\":0.030855512185226655}],[{\"RMSE\":0.030854911138554694}],[{\"RMSE\":0.030832633624481683}],[{\"RMSE\":0.03081582909481536}],[{\"RMSE\":0.03079964691682661}],[{\"RMSE\":0.030789057996473048}],[{\"RMSE\":0.030788295582177726}],[{\"RMSE\":0.030783589764589704}],[{\"RMSE\":0.03078323198535158}],[{\"RMSE\":0.030783223043491105}],[{\"RMSE\":0.030779177598418077}],[{\"RMSE\":0.03077355202748432}],[{\"RMSE\":0.03076114412587573}],[{\"RMSE\":0.03075635764346037}],[{\"RMSE\":0.03075301383206146}],[{\"RMSE\":0.030750405345507676}],[{\"RMSE\":0.030750450251991173}],[{\"RMSE\":0.030750026519360048}],[{\"RMSE\":0.030750065064840366}],[{\"RMSE\":0.03075011992154003}],[{\"RMSE\":0.03075120350895318}],[{\"RMSE\":0.03075218998619618}],[{\"RMSE\":0.030741240654460437}],[{\"RMSE\":0.030729924711909714}],[{\"RMSE\":0.030728220611096733}],[{\"RMSE\":0.030717894673694724}],[{\"RMSE\":0.030717901735433453}],[{\"RMSE\":0.030717543933634864}],[{\"RMSE\":0.030716958608905776}],[{\"RMSE\":0.030716810512349604}],[{\"RMSE\":0.030716817652655184}],[{\"RMSE\":0.030716889939906893}],[{\"RMSE\":0.030716890881244525}],[{\"RMSE\":0.030716890961128836}],[{\"RMSE\":0.030716803932878647}],[{\"RMSE\":0.03071790729814414}],[{\"RMSE\":0.030717403403022113}],[{\"RMSE\":0.030717418567813997}],[{\"RMSE\":0.03071742797970662}],[{\"RMSE\":0.030717526384750053}],[{\"RMSE\":0.030718638758146625}],[{\"RMSE\":0.03071758744240848}],[{\"RMSE\":0.030708404276524152}],[{\"RMSE\":0.030705584280133768}],[{\"RMSE\":0.03070563456204904}],[{\"RMSE\":0.03070577492078144}],[{\"RMSE\":0.030705853904735233}],[{\"RMSE\":0.030705888104085772}],[{\"RMSE\":0.030705893485386954}],[{\"RMSE\":0.03070588074654229}],[{\"RMSE\":0.03070585672248573}],[{\"RMSE\":0.030705825728800037}],[{\"RMSE\":0.030705827688545198}],[{\"RMSE\":0.03070693870004737}],[{\"RMSE\":0.030707040508208903}],[{\"RMSE\":0.030707273342147488}],[{\"RMSE\":0.03070736884983569}],[{\"RMSE\":0.030708453218386136}],[{\"RMSE\":0.03070946650220738}],[{\"RMSE\":0.03070974045319241}],[{\"RMSE\":0.030709788463896603}],[{\"RMSE\":0.030705419208359418}],[{\"RMSE\":0.030705432219352808}],[{\"RMSE\":0.03070543640245931}],[{\"RMSE\":0.030705525022074603}],[{\"RMSE\":0.030705522637744582}],[{\"RMSE\":0.03070570965699281}],[{\"RMSE\":0.03070572145959651}],[{\"RMSE\":0.03070678939139665}],[{\"RMSE\":0.03070674485309336}],[{\"RMSE\":0.030707708701600125}],[{\"RMSE\":0.030707697013833704}],[{\"RMSE\":0.03070769404554497}],[{\"RMSE\":0.03070651583042085}],[{\"RMSE\":0.030706793682071735}],[{\"RMSE\":0.030702268091295826}],[{\"RMSE\":0.03070086749330267}],[{\"RMSE\":0.030700648489354103}],[{\"RMSE\":0.03069242598372528}],[{\"RMSE\":0.030696582914473646}],[{\"RMSE\":0.030696729566499402}],[{\"RMSE\":0.030683505144272316}],[{\"RMSE\":0.030682392379180246}],[{\"RMSE\":0.03068236877018653}],[{\"RMSE\":0.03068260182126201}],[{\"RMSE\":0.030682614322874266}],[{\"RMSE\":0.030682818342947525}],[{\"RMSE\":0.030682910120558553}],[{\"RMSE\":0.03068295171308261}],[{\"RMSE\":0.030683294009980412}],[{\"RMSE\":0.030679020383101017}],[{\"RMSE\":0.030678991676364228}],[{\"RMSE\":0.030678998046735927}],[{\"RMSE\":0.030678991441684407}],[{\"RMSE\":0.030678965187612574}],[{\"RMSE\":0.0306789339603822}],[{\"RMSE\":0.03067478661526906}],[{\"RMSE\":0.030674743249927642}],[{\"RMSE\":0.030674748873514575}],[{\"RMSE\":0.030675803950181196}],[{\"RMSE\":0.030675803401925526}],[{\"RMSE\":0.03067575827836353}],[{\"RMSE\":0.03067571298811656}],[{\"RMSE\":0.030675670363729705}],[{\"RMSE\":0.03067568554124151}],[{\"RMSE\":0.03067571646288142}],[{\"RMSE\":0.030675712569480342}],[{\"RMSE\":0.030675722945137155}],[{\"RMSE\":0.030675422663274055}],[{\"RMSE\":0.03067226040086411}],[{\"RMSE\":0.030672308906542337}],[{\"RMSE\":0.03067234525786321}],[{\"RMSE\":0.030672356068600498}],[{\"RMSE\":0.03067708194798294}],[{\"RMSE\":0.030682923851039105}],[{\"RMSE\":0.030685461736370878}],[{\"RMSE\":0.030683353668507128}],[{\"RMSE\":0.030684731374309188}],[{\"RMSE\":0.030679315930276674}],[{\"RMSE\":0.03067925889555455}],[{\"RMSE\":0.030680512025897434}],[{\"RMSE\":0.030681711566886174}],[{\"RMSE\":0.03067302270683403}],[{\"RMSE\":0.03067311199886991}],[{\"RMSE\":0.030677473860232108}],[{\"RMSE\":0.030669492568595427}],[{\"RMSE\":0.0306717124264351}],[{\"RMSE\":0.030665730500881398}],[{\"RMSE\":0.030665728328473023}],[{\"RMSE\":0.03066571826535382}],[{\"RMSE\":0.030665696273149252}],[{\"RMSE\":0.030661861831265475}],[{\"RMSE\":0.03066199345257459}],[{\"RMSE\":0.03066199784024557}],[{\"RMSE\":0.030662018569277246}],[{\"RMSE\":0.030662035834771905}],[{\"RMSE\":0.030662042480068163}],[{\"RMSE\":0.03065905587814141}],[{\"RMSE\":0.030659072458654166}],[{\"RMSE\":0.030651791012037775}],[{\"RMSE\":0.030649842140809288}],[{\"RMSE\":0.03065055654333223}],[{\"RMSE\":0.0306481544444124}],[{\"RMSE\":0.03064816796238032}],[{\"RMSE\":0.030649797720213166}],[{\"RMSE\":0.030654369322191385}],[{\"RMSE\":0.030655908001205066}],[{\"RMSE\":0.030657258586158982}],[{\"RMSE\":0.030658489676413426}],[{\"RMSE\":0.03065132851751703}],[{\"RMSE\":0.03064836330027624}],[{\"RMSE\":0.030644522311134695}],[{\"RMSE\":0.030643192183876074}],[{\"RMSE\":0.030643213719768934}],[{\"RMSE\":0.03063936636747096}],[{\"RMSE\":0.030639405311306964}],[{\"RMSE\":0.030639423677218287}],[{\"RMSE\":0.03063938027379531}],[{\"RMSE\":0.030635741032435198}],[{\"RMSE\":0.030635867052074117}],[{\"RMSE\":0.030635992083594084}],[{\"RMSE\":0.03063597584168119}],[{\"RMSE\":0.030632552543618616}],[{\"RMSE\":0.03063267992018551}],[{\"RMSE\":0.03063270255515615}],[{\"RMSE\":0.030632688664493646}],[{\"RMSE\":0.030632699650070414}],[{\"RMSE\":0.030632709522037713}],[{\"RMSE\":0.030632717740692563}],[{\"RMSE\":0.03063272062605945}],[{\"RMSE\":0.03063272628957404}],[{\"RMSE\":0.03063375911592818}],[{\"RMSE\":0.03063374402992657}],[{\"RMSE\":0.030633726946938687}],[{\"RMSE\":0.03063373197260004}],[{\"RMSE\":0.03063376238252896}],[{\"RMSE\":0.030633885774421162}],[{\"RMSE\":0.0306339073819144}],[{\"RMSE\":0.030633880275465212}],[{\"RMSE\":0.030626965534577943}],[{\"RMSE\":0.03061446908755762}],[{\"RMSE\":0.03061447466098772}],[{\"RMSE\":0.03061449759651083}],[{\"RMSE\":0.030614516214723556}],[{\"RMSE\":0.03060437031495031}],[{\"RMSE\":0.03060436293956413}],[{\"RMSE\":0.030604336509300976}],[{\"RMSE\":0.030604351348066407}],[{\"RMSE\":0.030604339701150673}],[{\"RMSE\":0.030604315320766077}],[{\"RMSE\":0.03060431552697901}],[{\"RMSE\":0.030604322612419622}],[{\"RMSE\":0.030599562442793354}],[{\"RMSE\":0.030596917740162127}],[{\"RMSE\":0.030596932498250854}],[{\"RMSE\":0.030596618353026815}],[{\"RMSE\":0.030589709969556088}],[{\"RMSE\":0.030593987746462804}],[{\"RMSE\":0.030594033587198623}],[{\"RMSE\":0.03058513734454791}],[{\"RMSE\":0.030585327950945578}],[{\"RMSE\":0.030585605478113006}],[{\"RMSE\":0.030585649333468988}],[{\"RMSE\":0.030585694202810036}],[{\"RMSE\":0.030585722615856237}],[{\"RMSE\":0.030585762896251544}],[{\"RMSE\":0.030586062930768123}],[{\"RMSE\":0.03058609080581767}],[{\"RMSE\":0.030586116186165174}],[{\"RMSE\":0.030586104527895213}],[{\"RMSE\":0.030586235292070586}],[{\"RMSE\":0.030586369042977728}],[{\"RMSE\":0.03058642222706157}],[{\"RMSE\":0.030580757896478006}],[{\"RMSE\":0.030576020641806503}],[{\"RMSE\":0.030573669673430493}],[{\"RMSE\":0.03057164667668729}],[{\"RMSE\":0.03056532580378082}],[{\"RMSE\":0.030560857414972407}],[{\"RMSE\":0.03056182209805481}],[{\"RMSE\":0.030562595229252525}],[{\"RMSE\":0.030559970483279304}],[{\"RMSE\":0.030559367424749243}],[{\"RMSE\":0.030556999515841433}],[{\"RMSE\":0.030556990924839777}],[{\"RMSE\":0.030551682251794922}],[{\"RMSE\":0.03055156116880632}],[{\"RMSE\":0.030546276419282304}],[{\"RMSE\":0.030545639062183296}],[{\"RMSE\":0.030545089029857114}],[{\"RMSE\":0.030545852071056933}],[{\"RMSE\":0.030544639558852043}],[{\"RMSE\":0.030544828640890555}],[{\"RMSE\":0.030544830306200907}],[{\"RMSE\":0.030544993420796803}],[{\"RMSE\":0.03054476236880297}],[{\"RMSE\":0.030544770325946522}],[{\"RMSE\":0.030544803259507286}],[{\"RMSE\":0.030545064712353742}],[{\"RMSE\":0.030545142133250294}],[{\"RMSE\":0.030546225734992223}],[{\"RMSE\":0.030545998919389684}],[{\"RMSE\":0.030545533562774892}],[{\"RMSE\":0.030545026590154435}],[{\"RMSE\":0.030544532710966302}],[{\"RMSE\":0.030544832966889788}],[{\"RMSE\":0.030545778702561664}],[{\"RMSE\":0.030545771134441634}],[{\"RMSE\":0.030546028938012948}],[{\"RMSE\":0.030546314797819125}],[{\"RMSE\":0.030546600642343758}],[{\"RMSE\":0.03054661673240664}],[{\"RMSE\":0.030539646665071106}],[{\"RMSE\":0.030539701020672546}],[{\"RMSE\":0.030539763461637056}],[{\"RMSE\":0.03053993191535364}],[{\"RMSE\":0.030539931873592743}],[{\"RMSE\":0.03053999500219476}],[{\"RMSE\":0.03054001508530569}],[{\"RMSE\":0.03054001431691021}],[{\"RMSE\":0.030541031586968307}],[{\"RMSE\":0.030540552712693847}],[{\"RMSE\":0.030540543392067993}],[{\"RMSE\":0.030540572852710602}],[{\"RMSE\":0.030540362338902668}],[{\"RMSE\":0.030540360068520993}],[{\"RMSE\":0.030539764793767184}],[{\"RMSE\":0.0305408475615755}],[{\"RMSE\":0.030540691111217575}],[{\"RMSE\":0.03054072567309813}],[{\"RMSE\":0.030540724895006185}],[{\"RMSE\":0.03054072488798918}],[{\"RMSE\":0.030541738241245325}],[{\"RMSE\":0.030541307752244826}],[{\"RMSE\":0.030542215019481858}],[{\"RMSE\":0.03053535846539674}],[{\"RMSE\":0.030533110115636995}],[{\"RMSE\":0.030533103571536872}],[{\"RMSE\":0.03053310400022225}],[{\"RMSE\":0.030532215774225012}],[{\"RMSE\":0.03053221646268472}],[{\"RMSE\":0.03052241769541135}],[{\"RMSE\":0.030519875185103604}],[{\"RMSE\":0.030519699484484387}],[{\"RMSE\":0.03051970182758805}],[{\"RMSE\":0.03051970397505728}],[{\"RMSE\":0.03051974573776001}],[{\"RMSE\":0.030519759989596655}],[{\"RMSE\":0.030519757697121157}],[{\"RMSE\":0.030519759496932742}],[{\"RMSE\":0.030520106621740775}],[{\"RMSE\":0.03052038141212606}],[{\"RMSE\":0.03052043931461105}],[{\"RMSE\":0.03052068655261454}],[{\"RMSE\":0.030520994235689738}],[{\"RMSE\":0.030521298114797903}],[{\"RMSE\":0.030521594986133698}],[{\"RMSE\":0.030521886233132713}],[{\"RMSE\":0.03052217323125666}],[{\"RMSE\":0.03052258153229139}],[{\"RMSE\":0.03052053969829575}],[{\"RMSE\":0.030520889172639707}],[{\"RMSE\":0.03052102144933139}],[{\"RMSE\":0.03050908563890918}],[{\"RMSE\":0.03050865316443534}],[{\"RMSE\":0.0305082205185995}],[{\"RMSE\":0.030507836192793694}],[{\"RMSE\":0.030507457037932773}],[{\"RMSE\":0.030508256087380375}],[{\"RMSE\":0.030508142140987796}],[{\"RMSE\":0.03050770214438745}],[{\"RMSE\":0.030518575586002468}],[{\"RMSE\":0.03049815270514151}],[{\"RMSE\":0.030487467310319028}],[{\"RMSE\":0.0304785723477774}],[{\"RMSE\":0.030478585310880307}],[{\"RMSE\":0.030470948878582246}],[{\"RMSE\":0.030470933380013297}],[{\"RMSE\":0.030471004197094018}],[{\"RMSE\":0.030471071998694536}],[{\"RMSE\":0.030471142466893357}],[{\"RMSE\":0.030471151208085478}],[{\"RMSE\":0.030452303994462936}],[{\"RMSE\":0.030443653395404897}],[{\"RMSE\":0.03043236795805594}],[{\"RMSE\":0.03043261095246831}],[{\"RMSE\":0.030432751136528113}],[{\"RMSE\":0.030433218613628344}],[{\"RMSE\":0.030433330301631954}],[{\"RMSE\":0.030433379431495013}],[{\"RMSE\":0.030433781949886177}],[{\"RMSE\":0.030433837575764313}],[{\"RMSE\":0.03043420054199036}],[{\"RMSE\":0.030434418992842164}],[{\"RMSE\":0.030434830375016316}],[{\"RMSE\":0.030434884110668876}],[{\"RMSE\":0.030434798191609984}],[{\"RMSE\":0.030434989112619756}],[{\"RMSE\":0.030435442584985716}],[{\"RMSE\":0.030435682059645277}],[{\"RMSE\":0.030436093384918633}],[{\"RMSE\":0.030436305721755805}],[{\"RMSE\":0.0304345236817965}],[{\"RMSE\":0.030434512446733876}],[{\"RMSE\":0.03042812054436217}],[{\"RMSE\":0.030427984699891143}],[{\"RMSE\":0.030425741705925158}],[{\"RMSE\":0.030426546274406947}],[{\"RMSE\":0.030426157607948284}],[{\"RMSE\":0.030427253678532197}],[{\"RMSE\":0.030412006077420957}],[{\"RMSE\":0.030406464492685626}],[{\"RMSE\":0.03040931867441759}],[{\"RMSE\":0.030410144433209246}],[{\"RMSE\":0.0304055065732419}],[{\"RMSE\":0.03040592254305878}],[{\"RMSE\":0.03040403176909384}],[{\"RMSE\":0.03039873867095946}],[{\"RMSE\":0.030394365359483665}],[{\"RMSE\":0.030387267673111274}],[{\"RMSE\":0.030382297842518113}],[{\"RMSE\":0.03038170702142355}],[{\"RMSE\":0.030381333909748887}],[{\"RMSE\":0.030370307328678778}],[{\"RMSE\":0.030356816099641123}],[{\"RMSE\":0.030351523732869166}],[{\"RMSE\":0.030347409216716508}],[{\"RMSE\":0.03033950816830178}],[{\"RMSE\":0.030335255732192416}],[{\"RMSE\":0.030331770925223656}],[{\"RMSE\":0.030332640524613805}],[{\"RMSE\":0.03032930727039544}],[{\"RMSE\":0.03032409397851065}],[{\"RMSE\":0.0303361800401196}],[{\"RMSE\":0.030322493813420972}],[{\"RMSE\":0.030313491791422353}],[{\"RMSE\":0.030313094929431218}],[{\"RMSE\":0.030306711651209944}],[{\"RMSE\":0.030299248888974985}],[{\"RMSE\":0.030299372478458927}],[{\"RMSE\":0.030302164557851313}],[{\"RMSE\":0.030294633866117956}],[{\"RMSE\":0.0302873107773161}],[{\"RMSE\":0.0302869182400855}],[{\"RMSE\":0.030287761308891083}],[{\"RMSE\":0.030288462270566727}],[{\"RMSE\":0.0302891459532834}],[{\"RMSE\":0.030288752890175477}],[{\"RMSE\":0.030282265648990763}],[{\"RMSE\":0.030279677744287668}],[{\"RMSE\":0.030277216728729985}],[{\"RMSE\":0.03027258869356538}],[{\"RMSE\":0.030272536622361845}],[{\"RMSE\":0.030272584049774648}],[{\"RMSE\":0.030272750326266404}],[{\"RMSE\":0.03027300426954739}],[{\"RMSE\":0.030273296979473698}],[{\"RMSE\":0.03027416869273131}],[{\"RMSE\":0.030270788194528067}],[{\"RMSE\":0.030267161045480037}],[{\"RMSE\":0.030255995212074994}],[{\"RMSE\":0.030252944145123774}],[{\"RMSE\":0.030251224103087056}],[{\"RMSE\":0.030248212713504235}],[{\"RMSE\":0.030248105119769775}],[{\"RMSE\":0.03024730799935307}],[{\"RMSE\":0.030248148360032954}],[{\"RMSE\":0.03024767328095013}],[{\"RMSE\":0.030248221367914496}],[{\"RMSE\":0.030241047080229184}],[{\"RMSE\":0.0302411127877413}],[{\"RMSE\":0.03024110309115882}],[{\"RMSE\":0.03023440501689027}],[{\"RMSE\":0.030228727662352115}],[{\"RMSE\":0.0302263191047334}],[{\"RMSE\":0.030223750973702012}],[{\"RMSE\":0.030221805697029577}],[{\"RMSE\":0.0302134723627509}],[{\"RMSE\":0.0302143340144747}],[{\"RMSE\":0.030213989564481184}],[{\"RMSE\":0.030214307695728273}],[{\"RMSE\":0.03021466864928099}],[{\"RMSE\":0.030212803399084415}],[{\"RMSE\":0.030212869324805183}],[{\"RMSE\":0.030208770855286768}],[{\"RMSE\":0.030204083100081193}],[{\"RMSE\":0.030201254726228952}],[{\"RMSE\":0.030201201091865613}],[{\"RMSE\":0.030198414545531765}],[{\"RMSE\":0.030195764218926887}],[{\"RMSE\":0.03019757833875389}],[{\"RMSE\":0.030195090643758405}],[{\"RMSE\":0.030195145400905832}],[{\"RMSE\":0.030195133661689213}],[{\"RMSE\":0.030195079115987462}],[{\"RMSE\":0.03019507454792931}],[{\"RMSE\":0.030195074170606403}],[{\"RMSE\":0.030195224063502002}],[{\"RMSE\":0.030195303983302755}],[{\"RMSE\":0.030195315579750543}],[{\"RMSE\":0.03019533835735137}],[{\"RMSE\":0.03019542370635553}],[{\"RMSE\":0.030188363616005704}],[{\"RMSE\":0.030176415667878004}],[{\"RMSE\":0.030176373828631406}],[{\"RMSE\":0.030172257825852852}],[{\"RMSE\":0.03016370164296867}],[{\"RMSE\":0.03015703282010144}],[{\"RMSE\":0.030157978116687}],[{\"RMSE\":0.030149836781361107}],[{\"RMSE\":0.030143543656893534}],[{\"RMSE\":0.030144905017524048}],[{\"RMSE\":0.030136047226631373}],[{\"RMSE\":0.0301211378379819}],[{\"RMSE\":0.030117522910442885}],[{\"RMSE\":0.030111470954754468}],[{\"RMSE\":0.030111608343835913}],[{\"RMSE\":0.030111959734079576}],[{\"RMSE\":0.030104758075006552}],[{\"RMSE\":0.030099274528578468}],[{\"RMSE\":0.03009806041736898}],[{\"RMSE\":0.030094728464559323}],[{\"RMSE\":0.030096080045734684}],[{\"RMSE\":0.030101332365721493}],[{\"RMSE\":0.03009554893357717}],[{\"RMSE\":0.030089750741125954}],[{\"RMSE\":0.03008288111305243}],[{\"RMSE\":0.030080195156280104}],[{\"RMSE\":0.030077313244146968}],[{\"RMSE\":0.030074408990778973}],[{\"RMSE\":0.030074383870216544}],[{\"RMSE\":0.03006977080010582}],[{\"RMSE\":0.030063697600073592}],[{\"RMSE\":0.030064580158405914}],[{\"RMSE\":0.030064925787425863}],[{\"RMSE\":0.03006521261423639}],[{\"RMSE\":0.030065195033544413}],[{\"RMSE\":0.030065850683623642}],[{\"RMSE\":0.030067428046288706}],[{\"RMSE\":0.030067421510139067}],[{\"RMSE\":0.03006747402341014}],[{\"RMSE\":0.030060816058614135}],[{\"RMSE\":0.030059647301386817}],[{\"RMSE\":0.03005820391560056}],[{\"RMSE\":0.03005740434272238}],[{\"RMSE\":0.030056843156034605}],[{\"RMSE\":0.0300564803939431}],[{\"RMSE\":0.030054479151413904}],[{\"RMSE\":0.030052791044247996}],[{\"RMSE\":0.030052843260838645}],[{\"RMSE\":0.03005292621758946}],[{\"RMSE\":0.0300529364829919}],[{\"RMSE\":0.030052944410466714}],[{\"RMSE\":0.030052964173237818}],[{\"RMSE\":0.03005295162593918}],[{\"RMSE\":0.03005293068915369}],[{\"RMSE\":0.03005296033475344}],[{\"RMSE\":0.03005296855432858}],[{\"RMSE\":0.030052832795204404}],[{\"RMSE\":0.030053696351330556}],[{\"RMSE\":0.030053752232096234}],[{\"RMSE\":0.030053760989337205}],[{\"RMSE\":0.030054608212547497}],[{\"RMSE\":0.030054651303389048}],[{\"RMSE\":0.03005549353970558}],[{\"RMSE\":0.03005341489180699}],[{\"RMSE\":0.03005342651438941}],[{\"RMSE\":0.03005341918795889}],[{\"RMSE\":0.030053092945338398}],[{\"RMSE\":0.03004806285728533}],[{\"RMSE\":0.030042347588543683}],[{\"RMSE\":0.03004233860843011}],[{\"RMSE\":0.03004232821335538}],[{\"RMSE\":0.030041318564953762}],[{\"RMSE\":0.030042219188311566}],[{\"RMSE\":0.030040653179431786}],[{\"RMSE\":0.03004064240300128}],[{\"RMSE\":0.030040642936385763}],[{\"RMSE\":0.03004067020614684}],[{\"RMSE\":0.03004067271166661}],[{\"RMSE\":0.030040659685587466}],[{\"RMSE\":0.030040654140781123}],[{\"RMSE\":0.03004070645200188}],[{\"RMSE\":0.030040700133652294}],[{\"RMSE\":0.030040698204901354}],[{\"RMSE\":0.030040737543693255}],[{\"RMSE\":0.03004074078567429}],[{\"RMSE\":0.030040773922261958}],[{\"RMSE\":0.030040764257876884}],[{\"RMSE\":0.030040752224808086}],[{\"RMSE\":0.030040751939625375}],[{\"RMSE\":0.030035331564445173}],[{\"RMSE\":0.030034006259632418}],[{\"RMSE\":0.030033863071761528}],[{\"RMSE\":0.030039442465006186}],[{\"RMSE\":0.03003367540469062}],[{\"RMSE\":0.030033698426339597}],[{\"RMSE\":0.03003369598717614}],[{\"RMSE\":0.03003386356917279}],[{\"RMSE\":0.030034387833577213}],[{\"RMSE\":0.03003435983085483}],[{\"RMSE\":0.030034373137657295}],[{\"RMSE\":0.030032678371786643}],[{\"RMSE\":0.03003262466918582}],[{\"RMSE\":0.030032619528772116}],[{\"RMSE\":0.03003026097940156}],[{\"RMSE\":0.0300302489045664}],[{\"RMSE\":0.030030260380992227}],[{\"RMSE\":0.030024574471234893}],[{\"RMSE\":0.030024596660493428}],[{\"RMSE\":0.030024591532141966}],[{\"RMSE\":0.030024602589510615}],[{\"RMSE\":0.030024604564533628}],[{\"RMSE\":0.03002458673723316}],[{\"RMSE\":0.030021312781960997}],[{\"RMSE\":0.030017628812443277}],[{\"RMSE\":0.03001336078635868}],[{\"RMSE\":0.030012898617083738}],[{\"RMSE\":0.030015941206627282}],[{\"RMSE\":0.030018260673858495}],[{\"RMSE\":0.030020361087448984}],[{\"RMSE\":0.030021721790677264}],[{\"RMSE\":0.030017595711932136}],[{\"RMSE\":0.030018056070597373}],[{\"RMSE\":0.030018104719356054}],[{\"RMSE\":0.030012293134086262}],[{\"RMSE\":0.030011780587270432}],[{\"RMSE\":0.030013706267942943}],[{\"RMSE\":0.030014926511302796}],[{\"RMSE\":0.03000924120116889}],[{\"RMSE\":0.03000487170131777}],[{\"RMSE\":0.03000493309868888}],[{\"RMSE\":0.030005010858566463}],[{\"RMSE\":0.030004991779236004}],[{\"RMSE\":0.030004986380497964}],[{\"RMSE\":0.029998898127430482}],[{\"RMSE\":0.029993273360457064}],[{\"RMSE\":0.029992840885980733}],[{\"RMSE\":0.029992031254804742}],[{\"RMSE\":0.02998715346085677}],[{\"RMSE\":0.029987205709325813}],[{\"RMSE\":0.02998762815091718}],[{\"RMSE\":0.029987637615755243}],[{\"RMSE\":0.02998762635345951}],[{\"RMSE\":0.029987645045893397}],[{\"RMSE\":0.02998763485809792}],[{\"RMSE\":0.029987634057996006}],[{\"RMSE\":0.02998769477645224}],[{\"RMSE\":0.029985821803576954}],[{\"RMSE\":0.02998611203857068}],[{\"RMSE\":0.029986081844517194}],[{\"RMSE\":0.029982063196480103}],[{\"RMSE\":0.029984457223924763}],[{\"RMSE\":0.029985713927292563}],[{\"RMSE\":0.02998232344742605}],[{\"RMSE\":0.029983476099815002}],[{\"RMSE\":0.029985057027156207}],[{\"RMSE\":0.02997842925387235}],[{\"RMSE\":0.029980144867610244}],[{\"RMSE\":0.02997913282069914}],[{\"RMSE\":0.02997649561496286}],[{\"RMSE\":0.029976476236527654}],[{\"RMSE\":0.0299764647817948}],[{\"RMSE\":0.029976348593831685}],[{\"RMSE\":0.029971994723506985}],[{\"RMSE\":0.029972124632122572}],[{\"RMSE\":0.02997272542866798}],[{\"RMSE\":0.029972834025774026}],[{\"RMSE\":0.02997288437103042}],[{\"RMSE\":0.029972863704416302}],[{\"RMSE\":0.029973003176766027}],[{\"RMSE\":0.029972990940793913}],[{\"RMSE\":0.029973008161786264}],[{\"RMSE\":0.029973054119529628}],[{\"RMSE\":0.0299730581131659}],[{\"RMSE\":0.0299730409119132}],[{\"RMSE\":0.02997383247032102}],[{\"RMSE\":0.02996892122995007}],[{\"RMSE\":0.02996794706700277}],[{\"RMSE\":0.029967800062485787}],[{\"RMSE\":0.02996948077635077}],[{\"RMSE\":0.029969887526773722}],[{\"RMSE\":0.029969891876790535}],[{\"RMSE\":0.029969911157230883}],[{\"RMSE\":0.029969432486476925}],[{\"RMSE\":0.029969756730132007}],[{\"RMSE\":0.02997005820579146}],[{\"RMSE\":0.02997005969398843}],[{\"RMSE\":0.02996989848831564}],[{\"RMSE\":0.029969881894526918}],[{\"RMSE\":0.02996935312741673}],[{\"RMSE\":0.029969353261092298}],[{\"RMSE\":0.02996502060886469}],[{\"RMSE\":0.029965610149791936}],[{\"RMSE\":0.02996606303310677}],[{\"RMSE\":0.029964645658984383}],[{\"RMSE\":0.029964313890394636}],[{\"RMSE\":0.029964754661301975}],[{\"RMSE\":0.029964419356046185}],[{\"RMSE\":0.029964534000759536}],[{\"RMSE\":0.029964498365149448}],[{\"RMSE\":0.029964575588025406}],[{\"RMSE\":0.029964577149949743}],[{\"RMSE\":0.02996494854809818}],[{\"RMSE\":0.02996380797473091}],[{\"RMSE\":0.029963829788388286}],[{\"RMSE\":0.02996380564822644}],[{\"RMSE\":0.029961224137016337}],[{\"RMSE\":0.029961338893981646}],[{\"RMSE\":0.0299575528307587}],[{\"RMSE\":0.029957753038100495}],[{\"RMSE\":0.029957832112742663}],[{\"RMSE\":0.029957882173976925}],[{\"RMSE\":0.029958174809679244}],[{\"RMSE\":0.02995820857861318}],[{\"RMSE\":0.0299581857654816}],[{\"RMSE\":0.029958172765351145}],[{\"RMSE\":0.029958314560958293}],[{\"RMSE\":0.029958529985270467}],[{\"RMSE\":0.029958694039638804}],[{\"RMSE\":0.029958654942690243}],[{\"RMSE\":0.02995873555129315}],[{\"RMSE\":0.02995969065220338}],[{\"RMSE\":0.02996085066673527}],[{\"RMSE\":0.029957347185911094}],[{\"RMSE\":0.0299560230302635}],[{\"RMSE\":0.029959939001636758}],[{\"RMSE\":0.02996216303924532}],[{\"RMSE\":0.02996305700041859}],[{\"RMSE\":0.029964621758423356}],[{\"RMSE\":0.029950047323560144}],[{\"RMSE\":0.029950158819477136}],[{\"RMSE\":0.029950269565943287}],[{\"RMSE\":0.02995025123058921}],[{\"RMSE\":0.029950243287862076}],[{\"RMSE\":0.02995024851275133}],[{\"RMSE\":0.029950327136259586}],[{\"RMSE\":0.029950396876519864}],[{\"RMSE\":0.0299505797728246}],[{\"RMSE\":0.029950818202141506}],[{\"RMSE\":0.029949339868769066}],[{\"RMSE\":0.029945639836043404}],[{\"RMSE\":0.02994466011417948}],[{\"RMSE\":0.029944605547825003}],[{\"RMSE\":0.029945539742598868}],[{\"RMSE\":0.02994123956155975}],[{\"RMSE\":0.029940295689381616}],[{\"RMSE\":0.0299412689614801}],[{\"RMSE\":0.02994029663741853}],[{\"RMSE\":0.029941521620820404}],[{\"RMSE\":0.029942754639108587}],[{\"RMSE\":0.029941872683128378}],[{\"RMSE\":0.029942814549448256}],[{\"RMSE\":0.029943466268259642}],[{\"RMSE\":0.029944870525979644}],[{\"RMSE\":0.029939618262039076}],[{\"RMSE\":0.029936526775048433}],[{\"RMSE\":0.029932535243370625}],[{\"RMSE\":0.029936311739181706}],[{\"RMSE\":0.029928625912921458}],[{\"RMSE\":0.02992509249477215}],[{\"RMSE\":0.029921416667991283}],[{\"RMSE\":0.02991835458655693}],[{\"RMSE\":0.02991575000619387}],[{\"RMSE\":0.02991146394454093}],[{\"RMSE\":0.029910291301811796}],[{\"RMSE\":0.029910241694080374}],[{\"RMSE\":0.02991023773054949}],[{\"RMSE\":0.02991038778774088}],[{\"RMSE\":0.02991036420938437}],[{\"RMSE\":0.029907770864557634}],[{\"RMSE\":0.02990857699587014}],[{\"RMSE\":0.029908585933253677}],[{\"RMSE\":0.02990872200506229}],[{\"RMSE\":0.029908834310590368}],[{\"RMSE\":0.02990674227821459}],[{\"RMSE\":0.029906500089218722}],[{\"RMSE\":0.029903333410639856}],[{\"RMSE\":0.02989783976565375}],[{\"RMSE\":0.02989356243667513}],[{\"RMSE\":0.029893721456386333}],[{\"RMSE\":0.029893013794255116}],[{\"RMSE\":0.02988952616457501}],[{\"RMSE\":0.02989029517386073}],[{\"RMSE\":0.029890318031594646}],[{\"RMSE\":0.029890306214905463}],[{\"RMSE\":0.02989029453652959}],[{\"RMSE\":0.02989034101208241}],[{\"RMSE\":0.02989037488276821}],[{\"RMSE\":0.029890344036958807}],[{\"RMSE\":0.02989033672340811}],[{\"RMSE\":0.029890292653167925}],[{\"RMSE\":0.029884712166959895}],[{\"RMSE\":0.029883034150909957}],[{\"RMSE\":0.029880653945804705}],[{\"RMSE\":0.029885798806089367}],[{\"RMSE\":0.029885733595578008}],[{\"RMSE\":0.029885713217857546}],[{\"RMSE\":0.029884340498382952}],[{\"RMSE\":0.029883035648224126}],[{\"RMSE\":0.02988246620265129}],[{\"RMSE\":0.02988015490623424}],[{\"RMSE\":0.02988011428624178}],[{\"RMSE\":0.029880207322227337}],[{\"RMSE\":0.029880273189990973}],[{\"RMSE\":0.029880266088621245}],[{\"RMSE\":0.029880347115952027}],[{\"RMSE\":0.029880341818226398}],[{\"RMSE\":0.029880334746523934}],[{\"RMSE\":0.02988187969387188}],[{\"RMSE\":0.029882584277655944}],[{\"RMSE\":0.029883278662162276}],[{\"RMSE\":0.029881885162849106}],[{\"RMSE\":0.029882846990626988}],[{\"RMSE\":0.029883056077275042}],[{\"RMSE\":0.029879917802938846}],[{\"RMSE\":0.029878222090073885}],[{\"RMSE\":0.029877178577339437}],[{\"RMSE\":0.029876132665897004}],[{\"RMSE\":0.02987256364728554}],[{\"RMSE\":0.029872493452217378}],[{\"RMSE\":0.029872500881407194}],[{\"RMSE\":0.029868320272797372}],[{\"RMSE\":0.029867341239375258}],[{\"RMSE\":0.02986646105767024}],[{\"RMSE\":0.029864111438395614}],[{\"RMSE\":0.029861944711130316}],[{\"RMSE\":0.02986106379601814}],[{\"RMSE\":0.02986018076990919}],[{\"RMSE\":0.02985755014886885}],[{\"RMSE\":0.029857494717478776}],[{\"RMSE\":0.029857468295234692}],[{\"RMSE\":0.02985723072499792}],[{\"RMSE\":0.029856551211225255}],[{\"RMSE\":0.029857219862072397}],[{\"RMSE\":0.02985330937884721}],[{\"RMSE\":0.029851139165703092}],[{\"RMSE\":0.029851144161082057}],[{\"RMSE\":0.029851312099172633}],[{\"RMSE\":0.02985135678232549}],[{\"RMSE\":0.02985137388026682}],[{\"RMSE\":0.029848996088584913}],[{\"RMSE\":0.02984895988783955}],[{\"RMSE\":0.02984904504680272}],[{\"RMSE\":0.029848550838125057}],[{\"RMSE\":0.029849297363205945}],[{\"RMSE\":0.02984817649987604}],[{\"RMSE\":0.029843633728166303}],[{\"RMSE\":0.02984438255955564}],[{\"RMSE\":0.029845042856011254}],[{\"RMSE\":0.02983312395839931}],[{\"RMSE\":0.029829925664957443}],[{\"RMSE\":0.029825854950662298}],[{\"RMSE\":0.029823712270423703}],[{\"RMSE\":0.029824503457037525}],[{\"RMSE\":0.02982410006690299}],[{\"RMSE\":0.029823937794842666}],[{\"RMSE\":0.0298239574253591}],[{\"RMSE\":0.02982357141217762}],[{\"RMSE\":0.029821699742998573}],[{\"RMSE\":0.029821665541128074}],[{\"RMSE\":0.029821700905696184}],[{\"RMSE\":0.02982243668907205}],[{\"RMSE\":0.029819605039228068}],[{\"RMSE\":0.029817660304415718}],[{\"RMSE\":0.029816164940311363}],[{\"RMSE\":0.02981609887498076}],[{\"RMSE\":0.029815774686898156}],[{\"RMSE\":0.029818779439767136}],[{\"RMSE\":0.029818731972156173}],[{\"RMSE\":0.02981870124191285}],[{\"RMSE\":0.029818204453378506}],[{\"RMSE\":0.029819746102075866}],[{\"RMSE\":0.029818850954432232}],[{\"RMSE\":0.029819613815111147}],[{\"RMSE\":0.029813819920329502}],[{\"RMSE\":0.02981474667203355}],[{\"RMSE\":0.029811577802106866}],[{\"RMSE\":0.029811589084569143}],[{\"RMSE\":0.02981158011440775}],[{\"RMSE\":0.029809421251435604}],[{\"RMSE\":0.02980961753801966}],[{\"RMSE\":0.029808337531280222}],[{\"RMSE\":0.029810189944657832}],[{\"RMSE\":0.029810218827177475}],[{\"RMSE\":0.029808960574976128}],[{\"RMSE\":0.029805553173454014}],[{\"RMSE\":0.0298022425581425}],[{\"RMSE\":0.029801523123130967}],[{\"RMSE\":0.02979880888432914}],[{\"RMSE\":0.029798800841039006}],[{\"RMSE\":0.029798796556013377}],[{\"RMSE\":0.029798935634811407}],[{\"RMSE\":0.02979667592547061}],[{\"RMSE\":0.02979677786766335}],[{\"RMSE\":0.029796845761084014}],[{\"RMSE\":0.02979777532825125}],[{\"RMSE\":0.029793400803989813}],[{\"RMSE\":0.02979248539851807}],[{\"RMSE\":0.029792536119737322}],[{\"RMSE\":0.02979254748391083}],[{\"RMSE\":0.02978820258379872}],[{\"RMSE\":0.02978914712867669}],[{\"RMSE\":0.029790075215768704}],[{\"RMSE\":0.02979151021710872}],[{\"RMSE\":0.02978921648360852}],[{\"RMSE\":0.029788616581796174}],[{\"RMSE\":0.029789989642383073}],[{\"RMSE\":0.02978960365947615}],[{\"RMSE\":0.029790535860824013}],[{\"RMSE\":0.029790488823166695}],[{\"RMSE\":0.029787459823516247}],[{\"RMSE\":0.02978288466691104}],[{\"RMSE\":0.029784116655428787}],[{\"RMSE\":0.02978787587876128}],[{\"RMSE\":0.029785680735382396}],[{\"RMSE\":0.02978922019335533}],[{\"RMSE\":0.029793787606206743}],[{\"RMSE\":0.029792713043428554}],[{\"RMSE\":0.029790693952329923}],[{\"RMSE\":0.02978360073104874}],[{\"RMSE\":0.029783638659917903}],[{\"RMSE\":0.029783607732493042}],[{\"RMSE\":0.029783589990762915}],[{\"RMSE\":0.029783486022494327}],[{\"RMSE\":0.029779499728289156}],[{\"RMSE\":0.029779351391846842}],[{\"RMSE\":0.029776226982244285}],[{\"RMSE\":0.029773882531144966}],[{\"RMSE\":0.029772507338349123}],[{\"RMSE\":0.029770580441681422}],[{\"RMSE\":0.029770580550921615}],[{\"RMSE\":0.029770481485036755}],[{\"RMSE\":0.029770488037513615}],[{\"RMSE\":0.029769978436692754}],[{\"RMSE\":0.029769909812995873}],[{\"RMSE\":0.029769890856744054}],[{\"RMSE\":0.02976968329598309}],[{\"RMSE\":0.02977041437949945}],[{\"RMSE\":0.02977016328867584}],[{\"RMSE\":0.029770259151914672}],[{\"RMSE\":0.029770165783983827}],[{\"RMSE\":0.02976799437752352}],[{\"RMSE\":0.02976789360427601}],[{\"RMSE\":0.029767833646311137}],[{\"RMSE\":0.02976778192633342}],[{\"RMSE\":0.029768708157962058}],[{\"RMSE\":0.029768304665216478}],[{\"RMSE\":0.029769085043500655}],[{\"RMSE\":0.029768852299343385}],[{\"RMSE\":0.029770518731687158}],[{\"RMSE\":0.029770082126874747}],[{\"RMSE\":0.029769833764760386}],[{\"RMSE\":0.02976856588988917}],[{\"RMSE\":0.02976305882778029}],[{\"RMSE\":0.02976303063376341}],[{\"RMSE\":0.029763028305887645}],[{\"RMSE\":0.029763253141129858}],[{\"RMSE\":0.029763288563133938}],[{\"RMSE\":0.02976368879700911}],[{\"RMSE\":0.029763905420590386}],[{\"RMSE\":0.02976411793871494}],[{\"RMSE\":0.029764081399291237}],[{\"RMSE\":0.029764319267319872}],[{\"RMSE\":0.029764858470610812}],[{\"RMSE\":0.029765172952215372}],[{\"RMSE\":0.02976543640150691}],[{\"RMSE\":0.029765430248035196}],[{\"RMSE\":0.029765813594031496}],[{\"RMSE\":0.0297646065089226}],[{\"RMSE\":0.02976502440015247}],[{\"RMSE\":0.029765427547779052}],[{\"RMSE\":0.029765848018105095}],[{\"RMSE\":0.029766281258521883}],[{\"RMSE\":0.02976672244255264}],[{\"RMSE\":0.02976716844747874}],[{\"RMSE\":0.029767617306903645}],[{\"RMSE\":0.029768067760814487}],[{\"RMSE\":0.029768518984716306}],[{\"RMSE\":0.02976897042795484}],[{\"RMSE\":0.029771676662176824}],[{\"RMSE\":0.029772415809195135}],[{\"RMSE\":0.029773580537584887}],[{\"RMSE\":0.029773696025535153}],[{\"RMSE\":0.029773819566224633}],[{\"RMSE\":0.029773886358210228}],[{\"RMSE\":0.029774516243185136}],[{\"RMSE\":0.029775003612442168}],[{\"RMSE\":0.029775473252088437}],[{\"RMSE\":0.029775377132610154}],[{\"RMSE\":0.029775352055317145}],[{\"RMSE\":0.029774129646207733}],[{\"RMSE\":0.02977411029279481}],[{\"RMSE\":0.02977369722836071}],[{\"RMSE\":0.029773482899637313}],[{\"RMSE\":0.02977421578220276}],[{\"RMSE\":0.029774465199987565}],[{\"RMSE\":0.029774341780532995}],[{\"RMSE\":0.029774231794519133}],[{\"RMSE\":0.02977421358181676}],[{\"RMSE\":0.02976233005029226}],[{\"RMSE\":0.02976228878225083}],[{\"RMSE\":0.029762995024792287}],[{\"RMSE\":0.02976153798238226}],[{\"RMSE\":0.029762468204875322}],[{\"RMSE\":0.02976210497077761}],[{\"RMSE\":0.029761458899497335}],[{\"RMSE\":0.02976145158765704}],[{\"RMSE\":0.02976142437309751}],[{\"RMSE\":0.029764226347799}],[{\"RMSE\":0.029759687059654507}],[{\"RMSE\":0.029759753308576935}],[{\"RMSE\":0.029760472061378246}],[{\"RMSE\":0.02976049450984156}],[{\"RMSE\":0.029758293069475333}],[{\"RMSE\":0.029758353424431897}],[{\"RMSE\":0.02975838402908214}],[{\"RMSE\":0.02975929114250168}],[{\"RMSE\":0.029759123006466312}],[{\"RMSE\":0.029759095121132964}],[{\"RMSE\":0.029763374591781164}],[{\"RMSE\":0.029762734272134213}],[{\"RMSE\":0.02976302579350626}],[{\"RMSE\":0.02976273093500606}],[{\"RMSE\":0.029762739635011134}],[{\"RMSE\":0.029761512462105257}],[{\"RMSE\":0.029761084569701866}],[{\"RMSE\":0.029761687117939254}],[{\"RMSE\":0.029759594515428756}],[{\"RMSE\":0.029756658624485222}],[{\"RMSE\":0.029747163434064406}],[{\"RMSE\":0.029746630486646414}],[{\"RMSE\":0.02974373755459089}],[{\"RMSE\":0.029744127194175782}],[{\"RMSE\":0.029744613543875243}],[{\"RMSE\":0.029745096351427355}],[{\"RMSE\":0.029741990944514483}],[{\"RMSE\":0.029742459992368346}],[{\"RMSE\":0.029742931566103137}],[{\"RMSE\":0.02974339472764393}],[{\"RMSE\":0.029743850236482006}],[{\"RMSE\":0.029744299526813022}],[{\"RMSE\":0.029744743778772665}],[{\"RMSE\":0.029745183899908885}],[{\"RMSE\":0.029745620578585815}],[{\"RMSE\":0.029742508275760617}],[{\"RMSE\":0.02974327784832322}],[{\"RMSE\":0.029744514394217846}],[{\"RMSE\":0.02974358172897501}],[{\"RMSE\":0.029742676448871068}],[{\"RMSE\":0.02974388055972008}],[{\"RMSE\":0.029744822333694656}],[{\"RMSE\":0.0297447578787729}],[{\"RMSE\":0.029743908801775996}],[{\"RMSE\":0.02974403352093966}],[{\"RMSE\":0.02974205573804577}],[{\"RMSE\":0.029742021254194714}],[{\"RMSE\":0.02974201413554598}],[{\"RMSE\":0.029742192650368617}],[{\"RMSE\":0.029742601719649823}],[{\"RMSE\":0.029738147246879565}],[{\"RMSE\":0.029739662541905427}],[{\"RMSE\":0.029739546314970704}],[{\"RMSE\":0.02973955526971562}],[{\"RMSE\":0.029740260837650453}],[{\"RMSE\":0.029735594675585012}],[{\"RMSE\":0.02973460180205277}],[{\"RMSE\":0.029733003321258517}],[{\"RMSE\":0.029733668786556287}],[{\"RMSE\":0.02973362862247542}],[{\"RMSE\":0.029730135754484768}],[{\"RMSE\":0.029727183457801114}],[{\"RMSE\":0.029725744771536618}],[{\"RMSE\":0.029721224405688206}],[{\"RMSE\":0.029724290578404026}],[{\"RMSE\":0.029728176617358916}],[{\"RMSE\":0.02972364788264714}],[{\"RMSE\":0.02972431011364502}],[{\"RMSE\":0.02972222261938229}],[{\"RMSE\":0.02971622331277588}],[{\"RMSE\":0.029715397164127414}],[{\"RMSE\":0.029715261200942224}],[{\"RMSE\":0.029713133828329887}],[{\"RMSE\":0.029709789550972275}],[{\"RMSE\":0.029709552231465045}],[{\"RMSE\":0.029707301314915224}],[{\"RMSE\":0.029703956852103468}],[{\"RMSE\":0.02970455364110461}],[{\"RMSE\":0.029704654682730498}],[{\"RMSE\":0.029704622624011433}],[{\"RMSE\":0.029704605852816417}],[{\"RMSE\":0.02970458796733918}],[{\"RMSE\":0.029705196760255462}],[{\"RMSE\":0.029704333889872894}],[{\"RMSE\":0.0297035136977411}],[{\"RMSE\":0.02970186449914396}],[{\"RMSE\":0.02969816401490713}],[{\"RMSE\":0.02969802976983206}],[{\"RMSE\":0.029697942594708104}],[{\"RMSE\":0.029698899043032}],[{\"RMSE\":0.029698876254291507}],[{\"RMSE\":0.029699289737214963}],[{\"RMSE\":0.029699226593833776}],[{\"RMSE\":0.029699293341661447}],[{\"RMSE\":0.029699398545031137}],[{\"RMSE\":0.029699371674609263}],[{\"RMSE\":0.029699474760725063}],[{\"RMSE\":0.02969952869515053}],[{\"RMSE\":0.029700208287560703}],[{\"RMSE\":0.02970087788803679}],[{\"RMSE\":0.029700943943792756}],[{\"RMSE\":0.02970093314031352}],[{\"RMSE\":0.02970088958700394}],[{\"RMSE\":0.029700906031877004}],[{\"RMSE\":0.029700403155930033}],[{\"RMSE\":0.029699760853565817}],[{\"RMSE\":0.0296996913622684}],[{\"RMSE\":0.029699631414089465}],[{\"RMSE\":0.029700039939161753}],[{\"RMSE\":0.029700752020520162}],[{\"RMSE\":0.029692278382817273}],[{\"RMSE\":0.02969319620454143}],[{\"RMSE\":0.029691253699996565}],[{\"RMSE\":0.029691227797547494}],[{\"RMSE\":0.029690718393509664}],[{\"RMSE\":0.029690678116295926}],[{\"RMSE\":0.02969073979823617}],[{\"RMSE\":0.02969851925398678}],[{\"RMSE\":0.02969667853028405}],[{\"RMSE\":0.029696760822531205}],[{\"RMSE\":0.02969628986853386}],[{\"RMSE\":0.02969215328250516}],[{\"RMSE\":0.02969001459976577}],[{\"RMSE\":0.029689994283115705}],[{\"RMSE\":0.029689451054154783}],[{\"RMSE\":0.02968948212469355}],[{\"RMSE\":0.029686760112922494}],[{\"RMSE\":0.02968351230319653}],[{\"RMSE\":0.02968419064534804}],[{\"RMSE\":0.029682200481281854}],[{\"RMSE\":0.029682195297503843}],[{\"RMSE\":0.029682204016796856}],[{\"RMSE\":0.029682276900438224}],[{\"RMSE\":0.029682260329466605}],[{\"RMSE\":0.029682211665056354}],[{\"RMSE\":0.02968222508107741}],[{\"RMSE\":0.029682229899889594}],[{\"RMSE\":0.02968221498528374}],[{\"RMSE\":0.029682303490985055}],[{\"RMSE\":0.029682376564077118}],[{\"RMSE\":0.029675581593201945}],[{\"RMSE\":0.02967756058036978}],[{\"RMSE\":0.029680396097996813}],[{\"RMSE\":0.029681144738547407}],[{\"RMSE\":0.029681970816194878}],[{\"RMSE\":0.029684045549923564}],[{\"RMSE\":0.029679203166629333}],[{\"RMSE\":0.02967928559862364}],[{\"RMSE\":0.02967823860976306}],[{\"RMSE\":0.029677337478137254}],[{\"RMSE\":0.029675955532029546}],[{\"RMSE\":0.029673670796930656}],[{\"RMSE\":0.029671836659078358}],[{\"RMSE\":0.02966412196648186}],[{\"RMSE\":0.02966410205528934}],[{\"RMSE\":0.029664114849212934}],[{\"RMSE\":0.029664184863315828}],[{\"RMSE\":0.029662973072271132}],[{\"RMSE\":0.02966095582841132}],[{\"RMSE\":0.02966045073656738}],[{\"RMSE\":0.02965924318115578}],[{\"RMSE\":0.029659194098607563}],[{\"RMSE\":0.029659172878044267}],[{\"RMSE\":0.029659266053967057}],[{\"RMSE\":0.02965914677518607}],[{\"RMSE\":0.02965913032187916}],[{\"RMSE\":0.029659101606723855}],[{\"RMSE\":0.029659150517211068}],[{\"RMSE\":0.02965908626216537}],[{\"RMSE\":0.02965683632168507}],[{\"RMSE\":0.02965978393414213}],[{\"RMSE\":0.02965713296917429}],[{\"RMSE\":0.02965535815299775}],[{\"RMSE\":0.02965534829441161}],[{\"RMSE\":0.029653119637894524}],